svm_type nu_svc
kernel_type rbf
gamma 0.000105175
nr_class 10
total_sv 1669
rho -2.35518 -0.155765 0.784674 -1.09 -2.44166 -1.54888 -1.41565 -3.77359 -1.49079 2.94447 2.92685 1.36734 0.145563 2.59555 1.52388 -1.61278 0.234959 0.621542 -1.56803 -3.3752 -2.57267 -2.87152 -4.91817 -2.5849 -2.28394 -3.30529 -2.5162 -2.74015 -5.62119 -2.82058 -1.71399 -0.396668 -0.373212 -2.90985 -0.86052 0.911429 0.973402 -1.98203 -0.14638 -0.369953 -3.57128 -0.596185 -2.99652 -1.16608 1.93711
label 9 1 0 4 5 6 2 3 8 7
nr_sv 162 145 178 163 152 173 181 170 176 169
SV
168.4664006160918 134.1183917878422 92.64042792773878 159.5641048136577 165.8830314818887 201.401126861965 169.0136368885937 171.4351977377957 122.2063945273674 88:0.279798 207:0.353535 310:0.0858586 368:0.165657 652:0.0584596 681:0.0655892 843:0.468687 854:0.380303 855:0.0841751 1004:0.356364 1096:0.119865 1191:0.223345 1312:0.240404 1423:0.0717949 1479:0.165657 1590:0.0922559 1713:0.0717172 1736:0.0791246 1813:0.0909091 2021:0.242424 2058:0.408081 2097:0.723232 2170:0.192751 2185:0.474747 2206:0.245455 2332:0.0792727 2395:0.127273 2626:0.149495 2799:0.175758 2864:0.145455 2935:0.0838384 2948:1 3164:0.245455 3210:0.375758 3284:1 3285:0.522559 3411:0.0720539 3414:0.136508 3432:0.121717 3564:0.153535 3755:0.0576197 3767:0.151515 3785:0.103704 3927:0.275253 4030:0.331313 4048:0.0919192 4087:0.0940837 4103:0.0254209 4255:0.214141 4395:0.229293 4446:0.127273 4454:0.101414 4481:0.206061 4687:0.219304 4821:0.125657 4891:0.182828 4899:1 5007:0.359596 5024:0.179798 5046:0.220779 5056:0.102357 5531:0.0899429 5575:0.0765152 5607:0.0344353 5637:0.867879 5695:0.407576 5736:0.272054 5835:0.120539 5992:0.19798 6038:0.168595 6152:0.0689394 6173:0.245118 6313:0.237374 6360:0.109572 6485:0.312266 6516:0.141246 6529:0.0636364 6592:0.145455 6696:0.230303 6702:0.0808081 6733:0.345455 6788:0.490909 6837:0.163636 6886:0.107071 7012:0.416162 7048:0.0448934 7159:0.336364 7210:0.10404 7277:0.108283 7316:0.0604997 7344:0.0424242 7521:0.164646 7526:0.16431 7579:0.0537374 7688:0.116667 7797:0.878788 7800:0.650505 8294:0.158586 8299:0.329966 8353:0.181145 8355:0.281818 8357:0.0629828 8520:0.0603535 8530:0.0888889 8602:0.676768 8624:0.127273 8650:0.0737374 8892:0.356364 8956:0.079798 8965:0.0727273 9108:0.420202 9136:0.275325 9266:0.187879 9280:0.144444 9464:0.0945455 9487:0.383838 
168.4664006160918 175.6347225389036 136.7003826455561 159.5641048136577 165.8830314818887 201.401126861965 169.0136368885937 171.4351977377957 122.2063945273674 68:0.753622 88:0.120505 95:0.0236369 134:0.0827146 207:0.101508 217:0.101186 242:0.0367363 310:0.024652 315:0.046017 336:0.0406032 357:0.12529 368:0.0237819 409:0.0794664 461:0.0270513 466:0.0655452 627:0.0337405 652:0.0503553 666:0.0118495 681:0.0376643 828:0.0353828 855:0.0241686 868:0.062935 1004:0.124246 1015:0.0240719 1043:0.0516241 1055:0.0313225 1137:0.0135344 1173:0.820476 1191:0.0897783 1193:0.0704756 1205:0.0609049 1209:0.0452436 1226:0.0739559 1279:0.152262 1293:0.112213 1322:0.0388631 1369:0.0828306 1374:0.0365429 1377:0.0522042 1423:0.0824558 1427:0.113109 1450:0.00919788 1503:0.0632251 1534:0.156198 1551:0.0353828 1572:0.108469 1590:0.0264888 1695:0.0183681 1718:0.284223 1721:0.507541 1736:0.0227185 1769:0.11978 1792:0.0266821 1813:0.0522042 1905:0.0337877 2032:0.0435035 2059:0.0777262 2216:0.0163939 2218:0.0179814 2275:0.0508507 2279:0.0758701 2328:0.0475638 2383:0.0203016 2555:0.0883121 2595:0.25203 2624:0.179234 2626:0.300464 2641:0.0682797 2678:0.281516 2724:0.108933 2766:0.415313 2799:0.050464 2822:0.0942161 2864:0.0417633 2935:0.0240719 2959:0.0367087 3016:0.0416908 3021:0.049884 3044:0.0655452 3084:0.017208 3152:0.0458237 3164:0.105713 3184:0.231439 3210:0.323666 3212:0.0809165 3238:0.288863 3285:0.455475 3317:0.0846868 3368:0.0300464 3432:0.0698956 3465:0.0481439 3467:0.138051 3474:0.0411833 3484:0.12587 3530:0.201856 3564:0.132251 3584:0.0533643 3637:0.0395486 3673:0.112529 3679:0.0365429 3711:0.0682521 3755:0.00827197 3785:0.0297757 3800:0.0606148 3808:0.0181396 3861:0.0328693 3928:0.0114352 3950:0.0582947 3960:0.0464037 3965:0.0986079 4030:0.0951276 4048:0.0791763 4062:0.0523492 4079:0.113109 4087:0.108054 4101:0.0178654 4103:0.0218968 4104:0.0527842 4339:0.106729 4354:0.074536 4395:0.504737 4434:0.0910673 4454:0.116473 4517:0.0846868 4568:0.140951 4579:0.0382831 4619:0.428654 4669:0.0259364 4671:0.0840239 4681:0.132831 4720:0.241299 4723:0.0900634 4801:0.033836 4821:0.144316 4893:0.0123743 4909:0.0362529 4919:0.0344161 4982:0.046017 4994:0.181845 5007:0.103248 5012:0.074536 5040:0.206497 5046:0.456414 5056:0.0881671 5086:0.0411833 5109:0.0417633 5118:0.0775153 5201:0.122473 5322:0.0939675 5531:0.124281 5560:0.0152262 5575:0.0219693 5588:0.11891 5590:0.0337877 5606:0.0252848 5607:0.0988715 5655:0.0782096 5685:0.0533643 5709:0.146462 5734:0.0582947 5736:0.0781129 5798:0.0636118 5835:0.207657 5852:0.0356148 5910:0.0800464 5992:0.0284223 6011:0.062935 6032:0.0352378 6087:0.0504299 6097:0.0614849 6152:0.178147 6163:0.0704756 6173:0.0175947 6230:0.12123 6257:0.0768147 6259:0.0282289 6425:0.0400232 6446:0.187065 6459:0.0304524 6480:0.050464 6516:0.0405549 6529:0.0548144 6534:0.0867169 6571:0.0437935 6584:0.0259087 6696:0.0661253 6702:0.348028 6843:0.0232985 6886:0.0614849 7012:0.0597448 7048:0.0515597 7074:0.0527842 7102:0.0435035 7112:0.481825 7159:0.0643852 7210:0.0448086 7214:0.0183958 7228:0.0345128 7239:0.0433101 7277:0.279814 7316:0.0173709 7344:0.0609049 7353:0.0524942 7359:0.100735 7386:0.029389 7416:0.0523129 7421:0.0471771 7432:0.155452 7498:0.428074 7519:0.049884 7526:0.188708 7535:0.033256 7555:0.165313 7579:0.108005 7665:0.0309911 7674:0.19552 7688:0.0334977 7724:0.0232019 7867:0.0176914 8041:0.0222351 8047:0.0546901 8091:0.0171114 8175:0.0204446 8238:0.0392414 8289:0.0313225 8312:0.0858469 8355:0.0539443 8357:0.0180838 8400:0.0790797 8506:0.0936195 8520:0.0346578 8541:0.169374 8650:0.0211717 8653:0.0519142 8699:0.0692189 8823:0.0459397 8870:0.0362529 8871:0.0968677 8892:0.124246 8909:0.00991352 8914:0.0777262 8923:0.0591647 8942:0.12007 8965:0.0835267 9021:0.0809165 9078:0.0730858 9085:0.0897415 9111:0.254447 9136:0.158104 9180:0.0508507 9184:0.0417633 9188:0.024652 9197:0.0382831 9199:0.0458237 9237:0.0334642 9300:0.206497 9309:0.0450986 9322:0.136559 9417:0.0810905 9429:0.205723 9432:0.0385151 9464:0.0271462 9487:0.220418 9508:0.0516241 
128.3132334566527 175.6347225389036 47.19389852045666 156.440434248032 165.8830314818887 168.2905389615348 169.0136368885937 171.4351977377957 106.3855031277056 16:0.453202 88:0.0852833 123:0.170443 217:0.0859332 315:0.195402 652:0.0712746 895:0.73093 1004:0.0310345 1043:0.219212 1145:1 1189:0.57266 1429:0.276238 1481:0.267417 1695:0.0779967 1899:0.0960591 1974:0.512315 1977:0.170772 2169:0.137931 2212:0.37931 2246:0.145096 2383:0.0862069 2405:0.203202 2547:0.758621 2595:0.291872 2626:0.364532 2667:0.300493 2678:0.170772 2795:0.35468 2822:0.133357 2935:0.204433 2993:0.171798 3105:0.188013 3187:0.226601 3201:0.184729 3233:0.204433 3285:0.409571 3310:0.0477657 3416:0.486629 3451:0.219212 3564:0.187192 3584:0.226601 3637:0.587774 3687:0.34647 3742:0.184729 3928:0.0971147 4017:0.334975 4304:1 4395:0.0931856 4801:0.143678 4961:0.102217 4982:0.195402 5007:0.219212 5046:0.215341 5056:0.249589 5118:0.109718 5137:0.355911 5149:0.256158 5402:0.408867 5406:0.305419 5460:0.185961 5531:0.0685372 5583:0.403941 5736:0.165846 5857:1 6073:0.204433 6197:0.189245 6269:0.165572 6360:0.133591 6425:0.1133 6459:0.12931 6529:0.0775862 6581:0.687192 7032:0.162562 7040:1 7048:0.0547345 7062:0.100985 7118:0.189655 7163:0.283251 7230:0.275041 7349:0.450739 7351:0.240394 7521:0.200739 7526:0.100164 7579:0.196552 7624:0.0864532 7738:0.916256 7809:0.353448 7931:0.27422 8175:0.0868142 8287:0.12931 8484:0.308703 8506:0.132512 8680:0.109606 8737:0.08867 8797:0.380542 8871:0.41133 8892:0.0310345 9044:0.0599826 9136:0.111893 9237:0.0710496 9281:0.221675 9400:0.179803 9443:0.173645 
36.94453014102975 10.37482653344079 28.53016742371478 16.89766204798541 34.31031896983752 19.99431659814366 6.734902698114188 52.59326113550929 21.00298948894764 88:0.110623 163:0.0803286 315:0.253461 387:0.100639 675:0.191102 679:0.412141 1004:0.201278 1006:0.559105 1085:0.0719915 1160:0.236422 1189:0.247604 1191:0.0706425 1279:0.119808 1429:0.358316 1479:0.261981 1487:0.517572 1590:0.1459 1596:1 1813:0.14377 1975:0.250799 2141:0.219808 2218:0.0990415 2253:0.124068 2378:0.0503195 2383:0.111821 2428:0.189563 2575:0.085197 2579:0.86901 2595:0.126198 2935:0.265176 2977:0.193519 2983:0.127796 3152:0.252396 3186:1 3285:0.265632 3422:0.117647 3755:0.182248 3861:0.181044 3921:0.265176 4035:0.057508 4068:0.984026 4087:0.148791 4118:0.247604 4355:0.146965 4395:0.241747 4729:0.233759 4801:0.186368 4820:1 4961:0.132588 4963:0.626837 5007:0.284345 5046:0.279325 5531:0.0533407 5575:0.121006 5603:0.112983 5734:0.321086 5751:0.151225 5788:0.148243 5835:0.0953142 5884:0.86262 5965:0.226837 6048:0.0166844 6073:0.132588 6173:0.0484558 6227:0.0944267 6529:0.100639 6584:0.142705 6592:0.230032 6702:0.255591 6898:0.217252 7048:0.141995 7119:0.0908768 7159:0.177316 7178:0.148791 7192:0.109964 7199:0.392971 7215:0.120889 7230:0.356763 7416:0.288139 7526:0.0649627 7565:0.2 7713:0.0866379 7867:0.194888 7948:0.289936 7953:0.603834 8028:0.368211 8041:0.244941 8049:0.0903697 8078:0.299521 8091:0.376997 8233:0.172524 8254:0.0932907 8312:0.709265 8357:0.0498027 8508:0.189814 8552:0.450479 8782:0.715655 8823:0.253035 8892:0.201278 9080:1 9266:0.297125 9272:0.601438 9317:0.982428 9504:0.460977 
3.904917554154551 0 0 0 0 57.50323200499647 0 0 0 7:0.107189 88:0.044448 123:0.177664 153:0.0410783 169:0.0795892 242:0.0406504 257:0.310655 310:0.0545571 336:0.0449294 390:0.629653 392:0.0494223 420:0.110141 486:0.15982 503:0.122208 584:0.116816 741:0.120668 804:0.149551 834:0.161746 855:0.0534874 858:0.271502 1004:0.0808729 1191:0.0851519 1243:0.0663855 1279:0.144416 1293:0.0620843 1335:0.0457852 1374:0.0808729 1381:1 1429:0.028794 1450:0.0203558 1503:0.279846 1513:0.0414634 1590:0.0586222 1661:0.105263 1695:0.0406504 1736:0.0502781 1813:0.0577664 1899:0.0500642 1975:0.10077 2021:0.308087 2041:0.0426582 2087:0.0658964 2216:0.0362813 2217:0.0454286 2225:0.166239 2230:0.0949936 2332:0.0503723 2383:0.0898588 2487:0.0901379 2493:0.0499037 2504:0.780488 2539:0.1181 2593:0.029525 2626:0.0949936 2641:0.0755547 2799:0.223363 2806:0.231065 2820:0.804878 2864:0.0924262 2959:0.0812397 2998:0.0693196 3004:0.178562 3005:0.0530595 3009:0.105263 3105:0.0489944 3119:1 3133:0.964912 3170:0.0740265 3231:0.165169 3285:0.462498 3322:0.0937099 3393:0.0474968 3498:0.132991 3564:0.097561 3637:0.0437624 3673:0.124519 3719:1 3746:0.191271 3755:0.10984 3790:0.0436457 3861:0.109114 3921:0.106547 3922:0.284981 3965:0.0545571 3983:0.0712452 4039:0.263158 4068:0.395379 4076:0.071887 4104:0.116816 4247:0.734275 4305:0.0877193 4355:0.0590501 4387:0.0539153 4395:0.0485665 4397:0.0724005 4424:0.0609756 4454:0.0644416 4538:0.113821 4565:0.429611 4579:0.084724 4660:0.0590501 4729:0.0939238 4801:0.224647 4821:0.159692 4958:0.133248 5046:0.252522 5159:0.391528 5201:0.135522 5229:0.0874519 5267:0.221438 5395:0.127015 5405:0.203466 5531:0.107161 5560:0.033697 5616:0.0577664 5682:0.0958494 5742:0.293967 5798:0.0703894 5835:0.114891 5893:0.653402 5897:0.0731707 5939:0.123235 6032:0.0779846 6073:0.106547 6173:0.0194694 6227:0.0379404 6269:0.086293 6288:0.084724 6361:0.835687 6380:0.32991 6433:0.182285 6446:0.165597 6475:0.0988447 6485:0.0992114 6529:0.121309 6592:0.184852 6702:0.102696 6732:0.11104 6759:0.0962773 6886:0.136072 6908:0.111682 7024:0.0860077 7040:0.02369 7048:0.142633 7068:1 7199:0.0789474 7216:0.695764 7225:0.210526 7231:0.0575524 7316:0.153773 7376:0.0410783 7403:0.0609756 7416:0.115773 7442:0.174583 7467:0.034018 7518:0.0522037 7526:0.104407 7537:0.917843 7579:0.0682927 7624:0.135173 7647:0.072208 7674:0.12363 7713:0.348108 7732:0.127636 7753:0.0481386 7797:0.093068 7815:0.221759 7938:0.0524711 7944:0.157039 7949:0.0725289 7985:0.462131 8041:0.0492084 8128:0.0924262 8173:0.197047 8204:0.0349655 8239:0.051698 8300:0.229782 8312:0.0949936 8357:0.0200106 8409:0.262516 8484:0.080445 8520:0.0383504 8613:0.0894309 8624:0.0808729 8680:0.0571245 8823:0.101669 8892:0.0808729 8942:0.0885751 8965:0.138639 8973:0.0885751 9008:0.172015 9136:0.0583165 9197:0.084724 9237:0.0740594 9484:0.835687 
113.8235598877675 50.22709357983586 46.61289740715259 99.76140728901507 87.63333751936143 61.07945408009835 71.88593158200443 58.35516804657102 34.87735940623134 120:0.964286 153:0.285714 166:0.654018 276:0.2125 392:0.34375 425:1 704:0.271205 834:0.28125 916:0.158163 933:1 1191:0.0987103 1243:0.461735 1388:0.473214 1583:0.96875 1766:0.167411 2041:0.148352 2332:0.175179 2595:0.176339 2935:0.185268 3071:0.364698 3118:0.517857 3285:0.371173 3474:0.316964 3755:0.190994 3814:0.322066 4035:0.321429 4076:1 4103:0.0561756 4255:0.473214 4395:0.337798 5046:0.195153 5115:0.36352 5241:0.300223 5326:0.410714 5477:0.123512 5531:0.0869565 5603:0.157873 5763:0.224026 5973:0.254058 6032:0.271205 6148:0.482143 6173:0.135417 6235:0.742289 6425:0.102679 6592:0.321429 6633:0.991071 6641:0.139732 7040:0.0823864 7048:0.396825 7192:0.384136 7228:0.53125 7713:0.242122 7728:0.354167 7867:0.136161 8204:0.121599 8210:0.587054 8357:0.0695903 8396:0.151507 8598:0.22433 8680:0.595982 8782:1 8829:1 9443:0.314732 
168.4664006160918 175.6347225389036 136.7003826455561 159.5641048136577 165.8830314818887 201.401126861965 169.0136368885937 171.4351977377957 122.2063945273674 88:0.260338 242:0.238095 855:0.156642 1011:0.641604 1063:0.334586 1191:0.249373 1421:0.0728274 1530:0.974436 1534:0.20247 1713:0.133459 2170:0.538036 2249:0.334586 2330:0.281955 2383:0.263158 2532:0.110902 2595:0.148496 2959:0.237916 3084:0.111529 3212:0.786654 3285:0.382026 3291:1 3310:0.0729055 3432:0.679511 3564:0.285714 3627:1 3742:0.281955 4003:0.232331 4075:0.338346 4101:0.115789 4395:0.711153 4538:1 4919:0.223058 5046:0.164339 5087:0.701128 5531:0.104609 5817:0.676692 5835:0.112155 6087:0.163423 6173:0.0570175 6227:1 6259:0.182957 6360:0.203903 6515:0.68985 6665:0.353383 6781:0.100564 6886:0.597744 7048:0.0835422 7172:0.110902 7277:0.201504 7301:1 7344:0.0789474 7354:0.145489 7519:0.323308 7624:0.131955 7647:0.211466 8125:0.471805 8506:0.404511 8530:0.165414 8624:0.236842 8650:0.411654 8854:0.305585 9052:0.567669 9078:0.236842 9181:0.680451 9210:0.255639 9300:0.669173 9362:0.684211 9487:0.714286 
168.4664006160918 175.6347225389036 136.7003826455561 159.5641048136577 165.8830314818887 201.401126861965 169.0136368885937 162.2670120156511 122.2063945273674 425:0.921811 704:0.375 855:0.257202 1191:0.136488 1534:0.332451 1590:0.281893 1713:0.219136 1813:0.277778 1899:0.481481 2041:0.205128 2459:0.246914 2493:0.239969 2756:0.322016 2949:1 3285:0.513228 3373:0.183128 3712:0.537037 3755:0.17606 3757:1 3785:0.316872 4035:0.444444 4591:0.255144 5046:0.134921 5241:0.415123 5477:0.170782 5531:0.0687064 5798:0.676955 5835:0.552469 6173:0.0936214 6446:0.398148 6471:1 6592:0.444444 6925:0.95679 7040:0.113917 7048:0.274348 7457:1 7519:0.530864 7691:0.355967 7713:0.669572 7732:0.204586 7742:1 7867:0.188272 8204:0.168136 8210:0.270576 8598:0.310185 8699:0.368313 8926:1 
25.96555951021021 6.872866920905588 0 0 43.54229032862334 0 0 0 0 56:0.0543571 88:0.0887062 99:0.153715 163:0.0429425 235:0.0286934 273:0.12041 315:0.203245 351:0.0201474 364:0.0404782 387:0.0269001 420:0.0732707 575:0.344028 594:0.0457728 659:0.045047 675:0.0510801 687:0.0640478 735:0.176345 743:0.0651865 791:0.058497 804:0.0994876 834:0.1076 836:0.186166 855:0.142328 871:0.135141 890:0.0376967 895:0.434438 950:0.106319 1004:0.0215201 1063:0.0760034 1101:0.0386849 1128:0.0700256 1143:0.0411877 1145:0.173356 1205:0.0448335 1243:0.0441625 1279:0.0320239 1293:0.784722 1423:0.0303488 1429:0.0383101 1472:0.135781 1479:0.140051 1484:0.0350128 1503:0.139624 1757:0.0538002 1865:0.177626 1899:0.0666097 1953:0.185596 1960:0.0777114 2059:0.228864 2087:0.175349 2090:0.22374 2169:0.0478224 2182:0.111443 2216:0.0241359 2217:0.0604422 2218:0.0264731 2272:0.0292058 2287:0.0905209 2332:0.134039 2371:0.192997 2378:0.01345 2388:0.609735 2547:0.526046 2595:0.0337319 2626:0.0631939 2678:0.0592087 2724:0.160376 2799:0.148591 2844:1 2869:0.214347 2888:0.0606319 2936:0.0332919 3004:0.118787 3005:0.0705949 3016:0.0613792 3024:1 3105:0.0977797 3201:0.0640478 3233:0.0708796 3285:0.41812 3355:0.24082 3411:0.0304583 3414:0.057704 3416:0.22496 3434:0.1076 3452:0.131085 3455:0.0486763 3460:0.0508113 3529:0.109308 3564:0.129804 3584:0.0785653 3664:1 3673:0.0414176 3687:0.120125 3742:0.0640478 3746:0.127242 3755:0.0608918 3817:0.235696 3928:0.0505063 3960:0.0683177 4003:0.158326 4030:0.140051 4048:0.0388557 4053:0.0689582 4062:0.0770709 4068:0.263023 4101:0.0526046 4304:0.0693424 4315:0.0712212 4322:0.233134 4332:0.12468 4395:0.0323086 4422:0.0372087 4606:0.220325 4624:0.029035 4641:0.131939 4660:0.0785653 4688:0.327689 4723:0.0241083 4740:0.0794193 4793:0.0563621 4821:0.053117 4837:0.0467549 4880:0.0386727 5046:0.317311 5118:0.304324 5196:0.0478224 5201:0.0901549 5230:0.0704526 5241:0.0574295 5267:0.14731 5278:0.0999146 5328:0.08924 5349:0.160974 5458:0.211785 5531:0.0807931 5540:0.452818 5548:0.566542 5583:0.140051 5606:0.111676 5670:0.393681 5736:0.287504 5775:0.17848 5798:0.0468261 5810:0.116425 5811:0.030743 5812:0.388557 5835:0.0254768 5995:0.0508113 6101:0.475149 6173:0.0129519 6197:0.524907 6238:0.287931 6257:0.0565451 6269:0.0287029 6297:0.130658 6308:0.404782 6369:0.0708796 6395:0.0950754 6425:0.117848 6459:0.0448335 6485:0.0659998 6529:0.1345 6584:0.0762881 6592:0.30743 6628:1 6700:0.110162 6702:0.0341588 6801:0.109878 6845:0.0538002 6886:0.0905209 7023:0.105038 7024:0.0572161 7039:0.101196 7040:0.0787982 7048:0.0759085 7178:0.0397706 7186:0.36531 7192:0.0146962 7210:0.241887 7215:0.0646255 7228:0.101623 7344:0.0538002 7349:0.0520922 7386:0.0432679 7403:0.324509 7416:0.154035 7521:0.0695986 7526:0.0520922 7528:0.035677 7579:0.0227156 7624:0.0899231 7649:0.0246995 7665:0.0456264 7667:0.355252 7673:0.274125 7693:0.029889 7713:0.069473 7728:0.0677484 7732:0.028303 7805:0.126519 7867:0.0520922 7931:0.142613 7935:1 7999:0.0324509 8032:1 8041:0.0327356 8044:0.0819812 8112:0.0557928 8204:0.0232605 8212:0.0428299 8220:0.198121 8239:0.0343917 8281:0.52263 8287:0.0448335 8484:0.107031 8520:0.0255124 8567:0.07885 8568:0.280102 8579:0.0309137 8613:0.118987 8616:0.17421 8639:0.0755764 8650:0.12468 8653:0.0382152 8680:0.0760034 8698:0.0300598 8737:0.0614859 8797:0.0659693 8823:0.0676345 8892:0.0215201 8909:0.0145951 8965:0.030743 9001:0.0845431 9040:0.749787 9136:0.193973 9169:0.0785653 9197:0.0563621 9213:0.114944 9237:0.0739013 9254:0.11187 9260:0.454313 9416:0.0469684 9443:0.12041 
168.4664006160918 175.6347225389036 98.10977913496529 159.5641048136577 165.8830314818887 201.401126861965 169.0136368885937 171.4351977377957 122.2063945273674 203:0.469055 242:0.103149 257:0.394137 271:0.766475 741:0.306189 1004:0.0410423 1243:0.16845 1279:0.488599 1429:0.146127 1481:0.353653 1736:0.127579 1977:0.451683 2225:0.421824 2332:0.127818 2400:0.775244 2493:0.126629 2549:0.70684 2724:0.203909 2839:0.560261 2935:0.135179 2977:0.0493253 3005:0.134636 3133:0.222584 3285:0.300915 3310:0.252676 3460:0.193811 3742:0.2443 3767:0.2443 3861:0.184582 3928:0.0642159 4017:0.885993 4101:0.100326 4315:0.0905537 4470:0.312704 5007:0.579805 5046:0.142392 5080:0.781759 5531:0.072511 6046:0.172277 6306:0.837134 6474:0.335505 6475:0.250814 6510:0.106406 6529:0.205212 6592:0.234528 6665:0.306189 6686:0.294788 6908:0.283388 7024:0.218241 7048:0.0723851 7118:0.250814 7342:0.197068 7349:0.198697 7351:0.317915 7386:0.165038 7506:0.628664 7526:0.0662324 7713:0.264993 8128:0.117264 8173:1 8251:1 8520:0.389251 8624:0.615635 8892:0.0410423 8973:0.224756 9044:0.0793255 9078:0.410423 9142:0.788274 9281:0.29316 9484:0.235613 
168.4664006160918 175.6347225389036 136.7003826455561 159.5641048136577 165.8830314818887 201.401126861965 169.0136368885937 171.4351977377957 122.2063945273674 44:0.272459 88:0.0509941 217:0.0770741 271:0.519826 279:0.0865243 364:0.0116348 372:0.0481232 387:0.0463918 392:0.056701 473:0.0173049 508:0.0439985 624:0.0304369 627:0.0428341 642:0.170524 646:0.236377 653:0.0481591 667:0.0522828 676:0.127393 681:0.0239077 702:0.329897 703:0.0714286 741:0.0692194 743:0.11242 749:0.302209 840:0.415317 855:0.0613648 868:0.0798969 895:0.0936538 998:0.0692194 1004:0.194845 1043:0.0655376 1119:0.124448 1122:0.0949926 1189:0.0570692 1209:0.0574374 1220:0.145434 1243:0.0761624 1278:0.119293 1279:0.0828424 1328:0.546883 1351:0.266568 1369:0.0350515 1371:0.0339654 1382:0.095729 1429:0.181691 1481:0.239849 1484:0.0603829 1513:0.023785 1532:0.0888562 1550:0.0473122 1561:0.102356 1661:0.0301915 1685:0.0788975 1695:0.0466372 1706:0.189985 1710:0.218704 1735:0.110641 1736:0.0288414 1772:0.145803 1953:0.0800196 1960:0.0446735 1962:0.0876289 1977:0.510555 2059:0.197349 2145:0.118557 2158:0.0527246 2182:0.0960972 2216:0.0208123 2217:0.0781787 2235:0.0876289 2332:0.115582 2383:0.0515464 2395:0.0927835 2400:0.262887 2405:0.121502 2456:0.32327 2493:0.0572533 2526:0.052651 2532:0.0217231 2579:0.100147 2595:0.0872607 2641:0.0866821 2777:0.0662739 2799:0.192194 2815:0.121993 2934:0.0888562 2936:0.0287075 2942:0.207658 2959:0.0466021 2972:0.126657 2977:0.0111509 3005:0.0608738 3007:0.178203 3009:0.0603829 3105:0.0281051 3170:0.0424644 3226:0.154639 3272:0.303387 3285:0.346939 3310:0.171365 3369:0.0787923 3431:0.0629602 3434:0.0463918 3525:0.248895 3564:0.223859 3584:0.0677467 3706:0.195508 3728:0.0929676 3755:0.0210028 3774:0.194772 3834:0.243004 3871:0.108616 3894:0.035837 3927:0.200663 3945:0.0199558 3959:0.0783321 3997:0.074865 4012:0.0927835 4062:0.066458 4074:0.0441826 4076:0.0412371 4077:0.0883652 4097:0.121944 4103:0.00926608 4225:0.0880707 4315:0.0614138 4339:0.0677467 4395:0.0557192 4638:0.163476 4641:0.11377 4696:0.175258 4717:1 4723:0.0623655 4792:0.0773196 4801:0.0429553 4821:0.0916053 4831:0.044919 4833:1 4893:0.0157094 4963:0.722386 5046:0.209236 5056:0.111929 5068:0.20324 5096:0.444772 5118:0.0328022 5221:0.0116184 5255:0.0280744 5267:0.25405 5289:0.0368189 5388:0.120818 5430:0.0480398 5487:0.145803 5514:0.0662739 5518:0.0765832 5531:0.122943 5590:0.042894 5607:0.0125519 5611:0.115611 5710:0.0527737 5733:0.266568 5734:0.148012 5736:0.0495827 5778:0.525037 5831:0.0681149 5835:0.0439372 5860:0.114138 6031:0.0497791 6038:0.061454 6046:0.0389462 6072:0.0352122 6125:0.322754 6190:0.138439 6197:0.0565783 6224:0.297496 6266:0.256996 6272:1 6283:0.276141 6290:0.012592 6297:0.0563328 6303:0.0320033 6333:0.0756014 6369:0.0611193 6425:0.0677467 6439:0.0574374 6446:0.0949926 6447:0.175994 6459:0.0386598 6485:0.170734 6510:0.19244 6529:0.0695876 6621:0.619293 6645:0.0552283 6665:0.0692194 6675:0.0341679 6686:0.0666421 6690:0.0410898 6759:0.0552283 6786:0.222018 6886:0.039028 6891:0.0581738 6908:0.0640648 6930:0.226068 6943:0.205449 6947:0.0549828 7040:0.163074 7048:0.114548 7078:0.0787923 7159:0.0817378 7186:0.0630011 7192:0.0126725 7195:0.0555965 7214:0.0233537 7228:0.0438144 7231:0.0330142 7236:0.284978 7256:0.0345177 7280:0.389249 7316:0.0220526 7344:0.0309278 7349:0.179676 7386:0.186549 7413:0.122239 7416:0.066412 7506:0.284242 7521:0.120029 7526:0.074865 7555:0.0699558 7573:0.12592 7579:0.0391753 7611:0.0964654 7625:0.0227607 7647:0.0414212 7691:0.0424644 7711:0.0386598 7713:0.0199688 7730:0.0301915 7732:0.0732169 7859:0.104226 7956:0.0614875 8044:0.0706922 8238:0.0249088 8251:0.113034 8287:0.0773196 8294:0.0578056 8480:0.0461463 8506:0.0792342 8609:0.189249 8613:0.102602 8624:0.0463918 8729:0.0824742 8823:0.116642 8854:0.0598569 8861:0.071674 8892:0.194845 8909:0.113268 8973:0.05081 8980:0.0441826 9001:0.0729013 9040:0.646539 9085:0.037976 9112:0.0603829 9136:0.367978 9197:0.145803 9237:0.0424833 9281:0.132548 9314:0.30486 9388:0.262887 9423:0.0721649 9455:1 9464:0.0344624 
0 0 0 0 64.52480030196202 0 0 49.82748371512907 22.47837524994384 7:0.0851172 40:0.268434 56:0.0324425 88:0.105887 153:0.0652396 163:0.0256298 315:0.0808699 364:0.032212 390:1 420:0.0874618 425:0.0380564 473:0.0239551 476:0.2263 546:0.127013 653:1 666:0.0208242 741:0.191641 836:0.222222 855:0.0849473 858:0.431193 895:0.08643 984:0.0963303 1004:0.295413 1015:0.0423038 1122:0.394495 1220:0.603976 1278:0.165138 1364:0.0958206 1423:0.0724535 1450:0.0161643 1476:0.469929 1479:0.0835882 1551:0.0621814 1620:0.79103 1661:0.0417941 1695:0.09684 1706:0.175331 1838:0.0754332 1864:0.360856 1960:0.0618417 1977:0.141352 2059:0.204893 2087:0.0523276 2158:0.0364934 2192:0.0881753 2207:0.108461 2216:0.0576211 2217:0.0721486 2218:0.0316004 2267:0.46789 2279:0.0222222 2287:0.216106 2332:1 2383:0.0713558 2395:0.12844 2456:0.447503 2493:0.0396279 2549:0.221203 2595:0.201325 2641:0.0599971 2678:0.0706762 2724:0.0638124 2752:0.142712 2822:0.0551915 2927:0.111723 2934:0.0615019 2942:0.287462 2972:0.175331 3005:0.0842678 3105:0.0389059 3125:0.175331 3133:0.174142 3156:0.0927625 3285:0.423766 3362:0.0462538 3369:0.109072 3380:0.155624 3386:0.360856 3416:0.134265 3564:0.309888 3637:0.0695024 3673:0.0988787 3717:0.0795492 3771:0.0261638 3813:0.469929 3833:0.148828 3834:0.168196 3928:0.0200961 3942:0.268773 3945:0.0276249 4103:0.012827 4160:0.299354 4293:0.442406 4315:0.0283384 4395:0.0385661 4467:0.0812097 4481:0.103976 4544:0.0450874 4563:0.0502888 4729:0.0745838 4801:0.118926 4812:0.184506 4821:0.126809 4955:0.228338 4963:1 5007:0.0907238 5046:0.289646 5056:0.051648 5118:0.0908164 5137:0.147299 5255:0.0388634 5278:0.119266 5430:0.133003 5527:0.350832 5531:0.102114 5575:0.0772171 5583:0.167176 5590:0.0593782 5675:0.672783 5685:0.0937819 5736:0.137275 5764:0.284404 5798:0.111791 5806:0.223751 5835:0.0912334 5849:0.384302 5900:0.163099 5928:0.131498 6032:0.0619266 6073:0.0423038 6197:0.234964 6290:0.0174312 6308:0.966361 6485:0.0787826 6529:0.0642202 6615:0.0670744 6702:0.0407747 6732:0.0440877 6819:0.130989 6886:0.0540265 7040:0.0564359 7048:0.0226526 7078:0.327217 7155:0.119521 7167:0.108053 7172:0.0902141 7190:0.237513 7214:0.0969856 7215:0.0385711 7228:0.0606524 7231:0.0457017 7277:0.0546381 7344:0.107034 7386:0.051648 7416:0.0919343 7467:0.0270133 7490:0.93578 7503:0.0498358 7521:0.747706 7526:0.0621814 7537:0.728848 7555:0.09684 7579:0.189806 7594:1 7713:0.0829286 7800:0.328236 7839:0.228431 7931:0.11349 7944:0.498811 8018:0.0958206 8047:0.0961118 8138:0.158342 8238:0.0344812 8287:0.0535168 8327:0.324669 8484:0.127761 8507:0.49949 8520:0.0609072 8578:0.0292219 8579:0.0369011 8609:0.261978 8624:0.0642202 8653:0.0456167 8678:0.0575943 8737:0.220183 8797:0.157492 8892:0.295413 8902:1 8909:0.104532 8965:0.0733945 8973:0.140673 9021:0.0474006 9078:0.0642202 9112:0.0835882 9136:0.138925 9197:0.134557 9237:0.0294048 9281:0.0917431 9360:0.280581 9372:0.278627 9442:0.946993 9443:0.0718654 
19.6250728346888 26.56775235302349 72.14923171508417 28.43641889732642 112.8309748689712 36.57698133640252 103.687168284675 107.2314311517275 77.52245341641429 7:0.0505601 18:0.0155414 88:0.0838632 242:0.0287617 257:0.0366334 310:0.0128671 315:0.0240186 336:0.0105964 342:0.0312595 392:0.0233121 401:0.0889091 404:0.0369361 486:0.037693 704:0.0183924 747:0.0498032 791:0.0207387 807:0.828792 855:0.0378444 856:0.653345 867:0.0429912 868:0.0656979 970:0.153497 1004:0.106812 1127:0.222222 1173:0.142749 1191:0.026777 1205:0.0158946 1279:0.0227066 1293:0.0146423 1316:1 1393:0.194974 1423:0.0215189 1479:0.0496518 1484:0.0248259 1487:0.0490463 1559:0.0653951 1572:0.11323 1713:0.0107478 1736:0.0237158 1813:0.0408719 1993:0.878192 2041:0.0100608 2045:0.298517 2059:0.0608538 2216:0.0171136 2217:0.0107142 2275:0.477748 2321:0.032092 2332:0.0118801 2334:0.0920375 2383:0.0105964 2395:0.0190736 2496:0.314462 2515:0.27248 2557:0.0781108 2593:0.00696337 2595:0.0119588 2641:0.356386 2652:0.0220507 2678:0.020991 2724:0.0189525 2799:0.0263397 2822:0.016392 2867:0.0240186 2935:0.0125643 3004:0.0421132 3021:0.0260369 3105:0.219548 3116:0.027248 3119:0.0471692 3133:0.827531 3285:0.578954 3358:0.488949 3373:0.0179635 3386:0.0357251 3432:0.36482 3442:1 3453:0.21102 3584:0.0557069 3588:0.0926431 3642:0.250076 3719:0.0884423 3732:0.00989577 3767:0.0227066 3785:0.0155414 3833:0.530427 3861:0.111515 4048:0.0275507 4066:0.269603 4076:0.0169543 4093:0.0188057 4103:0.00380967 4104:0.0275507 4160:0.0444545 4235:0.0505601 4379:0.0612776 4395:0.0458169 4454:0.0303966 4482:0.0853769 4538:0.0268443 4591:0.0250278 4629:1 4660:0.557069 4719:0.0345141 4723:0.179487 4809:0.0351196 4919:0.0179635 4921:0.0971844 4924:0.0853769 4928:1 4985:0.0599455 5007:0.0269452 5046:0.238225 5056:0.352811 5096:0.091432 5109:0.762943 5419:0.896155 5477:0.00837622 5483:0.0360279 5531:0.0353829 5575:0.0114668 5607:0.0051606 5622:0.0446564 5655:0.428625 5667:0.0390554 5695:0.0203603 5784:0.00696337 5798:0.0332021 5835:0.189676 5852:0.0185892 5906:0.00938541 5936:0.0390554 6004:0.0252296 6038:0.0252663 6043:1 6073:0.0125643 6163:0.165531 6173:0.0137754 6227:0.0447405 6238:0.0145827 6259:0.0147341 6282:0.851347 6297:0.0694823 6303:1 6326:0.0319354 6446:0.0390554 6506:0.0113317 6515:1 6592:0.0217984 6606:0.233 6686:0.0273993 6690:0.0337875 6702:0.242204 6732:0.0261883 6766:0.0678171 6831:0.849531 6886:0.016046 6898:0.0205873 6980:0.0600969 7024:0.0202846 7048:0.0201837 7159:0.621708 7167:0.032092 7178:0.126898 7185:0.0438995 7190:0.141084 7199:0.0372389 7214:0.00960166 7344:0.044505 7388:0.0129579 7434:0.022202 7442:0.782319 7526:0.166213 7579:0.0322131 7720:0.0535876 7732:0.0100342 7753:0.261126 7920:0.125341 7949:0.0342113 7953:0.0190736 8041:0.139267 8125:0.0759915 8175:0.0106711 8238:0.010241 8254:0.0176809 8299:0.04945 8353:0.027147 8355:0.0281562 8357:0.0141583 8380:0.0242709 8506:0.0162882 8550:0.0354223 8579:0.0219195 8613:0.400747 8650:0.0221011 8680:0.0134726 8851:0.40005 8892:0.106812 8901:0.0318498 8965:0.0217984 8980:0.0181653 9008:0.0202846 9021:0.0140781 9085:0.0156135 9128:0.0313568 9197:0.0399637 9204:0.0590372 9216:0.0529821 9237:0.0262 9266:0.0563124 9280:0.411293 9300:0.0269452 9307:0.069785 9360:1 9421:0.0282374 9433:0.0366334 9464:0.0566757 9484:0.0437986 
126.1812986608026 115.1830678970866 136.7003826455561 81.45438820292472 165.8830314818887 118.3144292292148 169.0136368885937 171.4351977377957 82.60554863958143 12:0.269337 18:0.0945365 236:0.0898754 276:0.0657459 315:0.438306 317:0.201657 392:0.106354 503:0.131492 695:0.14261 791:0.189227 807:0.103591 855:0.115101 994:1 1004:0.0696133 1092:0.178637 1191:0.122161 1243:0.142857 1258:0.290055 1364:0.519337 1429:0.123926 1534:0.148777 1550:0.177486 1661:0.11326 1685:0.147987 1899:0.21547 2087:0.141805 2192:0.23895 2332:0.108398 2536:0.0805615 2539:0.127072 2557:0.712707 2648:0.530387 2667:0.168508 2677:0.0662983 3133:0.0943831 3213:0.174033 3240:0.198895 3285:0.561431 3386:0.325967 3424:0.188191 3432:0.166436 3481:0.586556 3502:0.320442 3564:0.41989 3637:0.0941738 3673:0.133978 3755:0.0393947 3872:0.206262 3965:0.117403 3966:0.254144 4048:0.251381 4076:0.154696 4087:0.12865 4185:1 4355:0.127072 4387:0.116022 4395:0.418048 4723:0.389928 4729:0.202118 4812:1 4958:0.0955801 5007:0.245856 5046:0.120758 5092:0.453039 5155:0.210635 5330:0.225599 5477:0.0764273 5531:0.292097 5733:1 5778:0.256906 5788:0.256354 5835:0.0824125 6038:0.230537 6073:0.114641 6087:0.240169 6290:0.0472376 6395:0.153775 6511:0.178453 6529:0.26105 6702:0.220994 6763:1 7040:0.0509794 7159:0.153315 7210:0.28453 7277:0.148066 7526:0.224678 7674:0.133022 7679:0.218232 7790:0.20663 7899:0.779006 7944:0.337937 8041:0.105893 8083:0.160221 8091:0.0814917 8138:0.429098 8350:1 8447:0.176047 8451:0.285451 8613:0.192449 8698:0.0972376 8737:0.0994475 8884:0.21547 8892:0.0696133 8909:0.0944249 8965:0.0994475 9136:0.125493 9300:0.245856 
168.4664006160918 175.6347225389036 136.7003826455561 159.5641048136577 165.8830314818887 201.401126861965 169.0136368885937 171.4351977377957 122.2063945273674 74:0.0930281 207:0.216584 317:0.060231 653:0.0809406 843:0.0287129 1004:0.0467822 1188:0.0592155 1191:0.109461 1312:0.147277 1429:0.0277606 1450:0.0196252 1612:1 1754:0.0627063 1948:0.0657709 1977:0.0858086 2287:0.131188 3093:0.692554 3105:0.141708 3285:0.137199 3287:0.554043 3416:0.0815064 3432:0.0745668 3587:0.341584 3785:0.0635314 3892:0.0804455 4185:0.14934 4272:1 4395:0.0468234 4563:0.0610561 4671:0.0896393 4723:0.279513 4734:0.329208 4772:0.252723 4801:0.0721947 4941:0.355198 5040:0.110149 5083:0.166102 5118:0.110261 5155:0.0943688 5326:0.113861 5330:0.0505363 5531:0.261731 5562:0.190594 5607:0.0210959 5724:0.554043 5751:0.117162 5925:0.0511234 5983:0.202351 6073:0.0513614 6087:0.0538002 6238:0.0596122 6351:0.612005 6359:0.0335396 6395:0.137789 6464:0.335396 6529:0.0389851 6628:0.724629 6702:0.049505 6800:0.197872 6886:0.0655941 7025:0.190594 7040:0.0228398 7074:0.112624 7210:0.0318688 7624:0.0434406 7730:0.101485 7784:0.196782 7797:0.0897277 7899:0.34901 7996:0.0321782 8166:0.29703 8175:0.043622 8513:0.0466172 8520:0.036974 8675:0.200318 8776:0.0631188 8809:0.180693 8892:0.0467822 8909:0.0211521 8916:0.101073 9108:0.128713 9137:0.310025 9457:0.116852 
168.4664006160918 175.6347225389036 136.7003826455561 159.5641048136577 165.8830314818887 201.401126861965 169.0136368885937 171.4351977377957 122.2063945273674 7:0.0331218 18:0.00678743 56:0.0252488 88:0.0686731 99:0.0714002 134:0.018855 163:0.0299201 217:0.0138393 226:0.0519635 235:0.013328 242:0.0251223 273:0.0559302 315:0.157345 351:0.00935843 364:0.0125347 371:0.105514 387:0.0374851 420:0.0340341 429:0.0547402 509:0.0466085 575:0.106534 594:0.0212614 646:0.12733 652:0.0114786 653:0.0259421 659:0.0104621 675:0.0474532 681:0.0128785 735:0.0819119 743:0.030279 774:0.00745046 791:0.0543435 804:0.0462118 834:0.0499802 836:0.0864736 855:0.0826392 868:0.0430385 871:0.0418485 890:0.0175101 895:0.420408 950:0.0658469 1004:0.0699722 1043:0.0353035 1063:0.0353035 1101:0.0179691 1122:0.0511702 1128:0.0650536 1143:0.0191316 1145:0.0805236 1189:0.0307418 1205:0.104125 1225:0.0203623 1243:0.0205134 1279:0.0446251 1293:0.287765 1364:0.0372868 1369:0.0188814 1423:0.014097 1429:0.017795 1472:0.0630702 1479:0.0650536 1484:0.0162634 1489:0.180087 1503:0.0648552 1504:0.0264776 1513:0.0128124 1530:0.0342721 1550:0.0254859 1551:0.0241967 1590:0.0181145 1603:0.12138 1695:0.0125612 1696:0.0126234 1713:0.0140817 1757:0.0749702 1850:0.0331218 1864:0.14042 1865:0.247521 1870:0.0522941 1876:0.0192781 1899:0.0309401 1953:0.0862092 1960:0.048129 1977:0.0275023 2059:0.159461 2087:0.0814492 2090:0.103927 2158:0.113606 2169:0.0444268 2182:0.10353 2192:0.0343118 2207:0.0844109 2216:0.0112111 2217:0.0842258 2218:0.0245934 2221:0.0165014 2272:0.0271321 2279:0.0172947 2287:0.0420468 2332:0.0466958 2364:0.0249901 2367:0.0230067 2371:0.089647 2378:0.0249901 2383:0.0138834 2384:0.0575169 2388:0.283221 2395:0.0249901 2405:0.490877 2484:0.812376 2514:0.0447951 2547:0.488695 2593:0.0547402 2595:0.0626735 2626:0.0293534 2634:0.0509057 2641:0.0233467 2678:0.0550046 2724:0.0993257 2799:0.0690202 2822:0.0214767 2844:0.464498 2864:0.0285601 2869:0.0995637 2888:0.0281634 2934:0.0239323 2936:0.015464 2939:0.106836 2977:0.00600669 2987:0.0262651 3004:0.0551765 3005:0.0491868 3016:0.0285105 3024:0.232249 3076:0.0716647 3084:0.0117678 3105:0.060558 3133:0.0135528 3170:0.045749 3192:0.0745736 3201:0.0446251 3233:0.0329234 3285:0.406755 3355:0.11186 3393:0.0146767 3411:0.0282956 3414:0.0268034 3416:0.261234 3421:0.0345101 3434:0.0499802 3452:0.0608885 3460:0.0236017 3465:0.0329234 3529:0.0507735 3564:0.150734 3584:0.0364935 3629:0.0305434 3637:0.0135228 3664:0.464498 3673:0.0192384 3687:0.055798 3742:0.0297501 3746:0.0591035 3755:0.0509115 3774:0.0524593 3808:0.0124049 3809:0.0368901 3817:0.0547402 3834:0.1309 3872:0.0296179 3922:0.0880603 3928:0.0391001 3960:0.0317334 4003:0.0980563 4030:0.0650536 4035:0.01428 4048:0.0721936 4053:0.0320309 4054:0.109877 4062:0.0357993 4068:0.122174 4101:0.0244347 4103:0.00998281 4156:0.0934814 4304:0.0322094 4315:0.0661642 4319:0.0355018 4322:0.10829 4332:0.0579135 4339:0.0364935 4352:0.0216845 4395:0.0900436 4422:0.0518502 4561:0.12733 4568:0.0481952 4592:0.0934153 4596:0.365728 4606:0.10234 4624:0.0134867 4641:0.0612852 4660:0.0364935 4673:0.0151395 4688:0.152211 4712:0.0244347 4723:0.123181 4725:0.110274 4740:0.0368901 4793:0.0261801 4801:0.023139 4812:0.0717969 4821:0.0246727 4837:0.0217176 4880:0.0179634 4885:0.0474532 4893:0.00846225 4921:0.12733 5007:0.0353035 5046:0.260101 5056:0.0401957 5068:0.10948 5107:0.103134 5109:0.0285601 5118:0.318056 5195:0.101944 5196:0.0222134 5201:0.0837536 5230:0.0163626 5241:0.0266759 5255:0.0302459 5265:0.0569219 5267:0.0684252 5278:0.13923 5314:0.0358323 5328:0.0207259 5349:0.0747719 5355:0.0236017 5430:0.0258779 5458:0.0983737 5531:0.121415 5540:0.210333 5548:1 5570:0.0297501 5580:0.11186 5583:0.0650536 5601:0.174137 5603:0.0140276 5606:0.0345822 5624:0.0202301 5670:0.182864 5685:0.0182467 5736:0.213672 5748:0.337564 5763:0.00995276 5775:0.0829036 5788:0.0552162 5798:0.0217506 5806:0.0290229 5810:0.0540791 5811:0.01428 5812:0.180484 5835:0.0118339 5846:0.0262462 5851:0.0314473 5906:0.0122967 5928:0.0170567 5995:0.0236017 6038:0.0331037 6101:0.220706 6128:0.036791 6173:0.00601613 6197:0.487637 6234:0.0130504 6238:0.458548 6246:0.0420468 6257:0.0262651 6266:0.138437 6269:0.0133325 6297:0.0606902 6308:0.0940103 6360:0.0215145 6369:0.0329234 6395:0.0220812 6425:0.0729869 6429:0.0493852 6446:0.0255851 6459:0.0416501 6485:0.0613135 6502:0.0279651 6510:0.0259156 6529:0.112455 6580:0.0598969 6584:0.0354357 6628:0.464498 6645:0.0297501 6700:0.0511702 6702:0.0476002 6720:0.0176517 6759:0.0297501 6781:0.0318326 6801:0.025519 6845:0.0249901 6886:0.0630702 6921:0.091432 6947:0.0592358 7008:0.0525491 7023:0.0487902 7024:0.0265768 7039:0.0940103 7040:0.0366016 7046:0.0888536 7048:0.0440742 7159:0.0660452 7172:0.0117017 7173:0.00845208 7178:0.0369468 7186:0.441183 7192:0.0204791 7210:0.0204284 7215:0.0450277 7228:0.0708052 7236:0.0511702 7276:0.0552921 7277:0.0212614 7316:0.0118792 7334:0.328441 7344:0.0416501 7349:0.0241967 7351:0.0387148 7386:0.0200978 7403:0.150734 7411:0.0880603 7412:0.045148 7416:0.107323 7432:0.0531535 7490:0.364141 7521:0.0646569 7526:0.0322623 7528:0.0165719 7535:0.0227423 7541:0.0840936 7546:0.0632685 7555:0.0376835 7579:0.0316541 7624:0.0278461 7639:0.0374851 7649:0.0114729 7665:0.0423868 7667:0.165014 7673:0.12733 7693:0.0138834 7713:0.0430268 7724:0.0158667 7728:0.031469 7732:0.0394401 7737:0.133677 7805:0.0391786 7867:0.0241967 7896:0.0184451 7931:0.110406 7935:0.464498 7936:0.0260479 7938:0.0162138 7944:0.0970514 7979:0.0220547 7999:0.0150734 8032:0.464498 8041:0.0304112 8044:0.0380801 8068:0.0345101 8112:0.0259156 8161:0.0583102 8173:0.0608885 8204:0.0432179 8212:0.0298416 8220:0.092027 8233:0.0214201 8238:0.0134177 8239:0.0718871 8259:0.0268544 8273:0.0261801 8281:0.242761 8287:0.0208251 8353:0.0355679 8357:0.0123667 8484:0.0745736 8520:0.0237009 8567:0.0366257 8568:0.130107 8572:0.0199467 8579:0.0143594 8595:0.491472 8613:0.110538 8616:0.0809203 8639:0.0351051 8647:0.211027 8650:0.0579135 8653:0.0177509 8680:0.0176517 8698:0.0139627 8718:0.0793336 8737:0.0428401 8762:0.0940103 8766:0.0318326 8791:0.0313864 8797:0.0306426 8823:0.0314161 8853:0.0402618 8883:0.0241967 8892:0.0699722 8909:0.0271177 8951:0.116488 8965:0.0428401 8973:0.0273701 8994:0.0559302 9001:0.0392701 9040:0.174137 9044:0.00966003 9136:0.180201 9169:0.0364935 9180:0.0347746 9197:0.0785403 9213:0.0533915 9237:0.0457694 9254:0.0519635 9260:0.211027 9266:0.0368901 9281:0.0357001 9309:0.0308409 9416:0.0218167 9432:0.0131694 9435:0.0686236 9443:0.0559302 9455:0.269338 9484:0.0573846 
168.4664006160918 175.6347225389036 136.7003826455561 159.5641048136577 165.8830314818887 201.401126861965 169.0136368885937 171.4351977377957 122.2063945273674 134:0.252837 320:1 676:0.460106 704:0.323138 1004:0.134043 1189:0.412234 1199:0.56117 1243:0.275076 1293:0.257253 1364:0.5 1399:0.393617 1428:1 1450:0.0843465 1503:0.289894 1661:0.218085 1960:0.161348 2163:0.348404 2216:0.150336 2272:0.545745 2332:0.417447 2383:0.18617 2633:1 2724:0.332979 2802:0.723404 3005:0.439716 3016:0.382314 3233:0.441489 3285:0.540527 3564:0.404255 4053:0.429521 4678:0.861702 4958:0.184043 5007:0.473404 5149:0.553191 5201:0.56155 5332:0.358156 5531:0.177613 5736:0.716312 5788:0.246809 5798:0.291667 6043:0.924692 6072:0.254352 6173:0.0806738 6297:0.406915 6399:1 6485:0.411094 6696:0.606383 6873:0.363032 6886:0.281915 7228:0.316489 7344:0.111702 7913:1 8128:0.191489 8238:0.179926 8265:1 8287:0.279255 8506:0.28617 8650:0.388298 8892:0.134043 9450:0.37766 
168.4664006160918 175.6347225389036 136.7003826455561 159.5641048136577 165.8830314818887 201.401126861965 169.0136368885937 171.4351977377957 122.2063945273674 169:0.267241 242:0.272989 310:0.18319 364:0.0681034 585:0.676006 687:0.323276 954:0.170259 1038:0.455172 1137:0.603448 2330:0.323276 2367:1 2372:0.293103 2595:0.170259 2678:0.298851 3240:0.310345 3255:1 3285:0.119458 3453:0.176724 3712:0.375 3742:0.323276 3755:0.0614693 3858:0.0661684 3911:0.0744514 4076:0.241379 4103:0.108477 4146:0.195827 4395:0.163075 4712:0.265517 4809:1 4893:0.091954 4943:0.221264 5046:0.0942118 5196:0.241379 5221:0.0680077 5287:0.152555 5531:0.095952 5788:1 5835:0.514368 5937:0.160714 6173:0.261494 6410:0.0784483 6675:1 7039:0.255388 7048:0.478927 7119:0.122605 7125:0.590517 7192:0.148356 7688:0.746767 7732:1 8128:0.310345 8186:0.472701 8189:0.126616 8204:0.117406 8220:1 8254:0.251724 8357:0.0671907 8380:0.691092 8909:0.0736677 
49.19551318927036 123.7790779112114 49.50470511259681 78.91326586285582 49.54123534137275 114.4553211793981 56.68219971965957 131.9358214251681 35.12122786929484 88:0.349747 242:0.159933 247:1 315:0.400673 392:0.388889 652:0.292298 687:0.378788 890:0.222944 1004:0.190909 1191:0.446689 1369:0.240404 1479:0.414141 1513:0.163131 1710:1 1813:0.909091 2132:0.0983646 3005:0.208754 3285:0.513228 3422:0.371955 3580:0.560606 3635:1 3742:0.378788 3755:0.216074 4076:0.282828 4339:0.464646 4535:0.277778 4985:1 5046:0.220779 5056:0.511785 5477:0.139731 5487:1 5531:0.0843215 5575:0.191288 5736:0.340067 5835:0.301347 5862:0.190083 6048:0.0263749 6173:0.0765993 6180:0.590909 6465:0.131047 6516:0.706229 6592:0.363636 7048:0.224467 7199:0.310606 7386:0.255892 7526:0.308081 7854:1 7996:0.131313 8049:1 8128:0.181818 8239:0.101699 8357:0.0787285 8737:0.181818 8892:0.190909 8940:0.737374 9276:0.737374 
168.4664006160918 175.6347225389036 136.7003826455561 159.5641048136577 165.8830314818887 201.401126861965 169.0136368885937 171.4351977377957 122.2063945273674 12:0.05156 74:0.105999 88:0.0549313 127:0.045743 166:0.0387361 217:0.0368999 257:0.127975 286:0.0486515 295:0.0465362 310:0.0224749 315:0.0839062 336:0.0185087 404:0.0645161 409:0.0724484 510:0.0267481 575:0.142026 598:0.420941 627:0.0538314 828:0.0322581 843:0.0245373 855:0.0440684 890:0.0233437 895:0.112094 999:0.0613432 1043:0.047065 1101:0.0479112 1110:0.251719 1137:0.0123392 1199:0.0557906 1205:0.0277631 1209:0.041248 1250:0.176097 1279:0.0396616 1287:0.2578 1335:0.0188613 1358:0.0537282 1401:0.0436277 1423:0.037587 1450:0.0419279 1534:0.0284808 1550:0.0339767 1551:0.0322581 1561:0.0735061 1601:0.0777366 1665:0.140666 1695:0.066984 1736:0.0207121 1813:0.0237969 1905:0.0308038 1960:0.0320818 1962:0.0629297 1975:0.0415124 2059:0.070862 2078:0.329455 2097:0.378636 2124:0.0507668 2158:0.0189318 2212:0.0407192 2279:0.0345849 2293:0.0936013 2321:0.11211 2328:0.0867266 2332:0.0830037 2341:0.061872 2395:0.0333157 2405:0.0436277 2442:0.0616958 2595:0.104442 2626:0.0391327 2649:0.0764146 2678:0.109995 2696:0.214701 2724:0.0331042 2756:0.110347 2777:0.0475939 2799:0.0920148 2822:0.0286319 2839:0.0909572 2847:0.324696 2935:0.0219461 2936:0.020616 2959:0.0669336 3005:0.0437158 3115:0.0674246 3128:0.0894588 3152:0.0417768 3156:0.0240613 3233:0.131676 3242:0.0534109 3270:0.00963373 3285:0.41525 3291:0.0351666 3310:0.0820428 3362:0.0239952 3411:0.0188613 3432:0.127446 3465:0.0438921 3564:0.0803808 3637:0.018028 3712:0.0460074 3742:0.0793231 3755:0.150829 3774:0.0699365 3834:0.0872554 3840:0.0448176 3846:0.0735061 3873:0.0562665 3950:0.0531465 3965:0.0449498 3992:0.0613432 4032:0.295082 4101:0.0162877 4214:0.274987 4348:0.0183325 4354:0.0679535 4395:0.0800282 4403:0.0116897 4481:0.0539397 4523:0.555262 4543:0.0962454 4644:0.0818791 4670:0.307774 4720:0.659968 4792:0.0277631 4821:0.263141 4886:0.052209 4891:0.0478583 4919:0.0313767 4928:0.0919313 5007:0.047065 5046:0.265846 5056:0.0535872 5112:0.0481227 5115:0.0430611 5118:0.0235566 5135:0.284506 5201:0.0558284 5458:0.131148 5514:0.0475939 5531:0.055917 5567:0.128503 5656:0.864622 5681:0.158117 5685:0.0243258 5708:0.223691 5734:0.0531465 5742:0.1211 5798:0.057994 5846:0.0349903 5868:0.0477701 5897:0.0301428 5931:0.15706 5936:0.0682179 5958:0.031553 6032:0.0321259 6035:0.0583466 6043:0.0919313 6072:0.151723 6173:0.0320818 6321:0.126917 6333:0.0542923 6360:0.114729 6367:0.070862 6393:0.105235 6425:0.0243258 6446:0.170545 6529:0.149921 6581:0.0491803 6603:0.210168 6623:0.951348 6654:0.0481227 6665:0.149127 6690:0.118033 6696:0.120571 6700:0.136436 6702:0.0634585 6753:0.321523 6796:0.0624008 6831:0.0243258 6886:0.0840825 6947:0.0394853 7048:0.235031 7118:0.0407192 7159:0.146748 7186:0.0452436 7190:0.24643 7192:0.0364025 7210:0.0544685 7214:0.0335423 7215:0.0400193 7271:0.138551 7316:0.0633472 7344:0.0444209 7359:0.0459193 7386:0.214349 7421:0.0860215 7444:0.0980962 7521:0.0430989 7526:0.268817 7579:0.0281333 7680:0.137229 7688:0.0305394 7759:0.04957 7778:1 7999:0.0401904 8018:0.149127 8128:0.0190375 8187:0.139609 8204:0.0720203 8238:0.0178879 8287:0.0832893 8353:0.0474176 8357:0.0164868 8382:0.0687467 8506:0.0284506 8513:0.0199189 8613:0.0736824 8650:0.173718 8653:0.0236647 8678:0.0597567 8754:0.122686 8792:0.0699806 8800:0.253834 8809:0.0772078 8871:0.0883131 8883:0.0322581 8943:0.0306716 8947:0.0198308 8965:0.0380751 8968:0.0782655 9078:0.0666314 9112:0.0867266 9190:0.0698043 9266:0.0491803 9300:0.047065 9339:0.351137 9400:0.0386039 9464:0.0247488 
134.7546918525661 119.1595936042553 49.33463142798286 44.88745788118447 74.66680897890147 201.401126861965 60.26016866288324 44.98679262918946 35.62721558271679 18:0.377729 88:0.0764349 153:0.0706402 242:0.0699043 368:0.0905077 514:1 560:0.216336 679:0.569536 687:0.165563 834:0.139073 855:0.0919794 950:0.0916115 1004:0.389404 1199:0.232892 1243:0.342479 1350:0.732892 1423:0.0784513 1429:0.198062 1450:0.0350047 1503:0.240618 1504:0.049117 1710:0.218543 1813:0.0993377 2021:0.264901 2032:0.165563 2383:0.154525 2575:0.0588668 2724:0.27638 2744:0.35894 2806:0.0993377 2864:0.15894 2936:0.0860593 2983:0.0883002 3005:0.0912436 3285:0.38747 3525:0.373068 3673:0.107064 3742:0.165563 3755:0.0314809 3928:0.0435194 4035:0.556291 4052:0.113024 4068:0.226637 4074:0.13245 4103:0.0277778 4395:0.501104 4575:1 4723:0.0623196 4917:1 4970:0.165563 4985:0.437086 5046:0.0964995 5112:0.200883 5137:0.318985 5531:0.0737115 5835:0.461001 5965:0.313466 6032:0.268212 6048:0.0115281 6079:0.598234 6321:0.13245 6446:0.142384 6465:0.057279 6475:0.169978 6549:0.119941 6592:0.15894 6641:0.13819 6684:0.331126 6843:0.0886681 6886:0.467991 7040:0.0407385 7048:0.0490557 7075:1 7192:0.0379896 7228:0.656733 7316:0.198327 7415:0.401766 7526:0.0448859 7578:1 7581:1 7674:0.1063 7680:0.190949 7713:0.0598624 8041:0.169242 8125:0.831126 8128:0.0794702 8208:0.199411 8254:0.0644592 8380:0.176968 8578:0.0632818 8680:0.785872 8823:0.174834 8829:0.988962 8892:0.389404 8940:0.322296 9090:1 9148:0.209713 9197:0.145695 9237:0.063678 9276:0.322296 9280:0.157837 
37.18022637345078 114.5642523045697 80.15507995312427 99.14770348002979 102.1609904725794 74.88751778731599 126.3122322844268 35.53830327776832 122.2063945273674 127:0.208937 169:0.149758 236:0.47152 242:0.0764895 310:0.102657 336:0.0845411 443:0.222222 461:0.112648 584:0.219807 676:0.208937 687:0.181159 774:0.0907372 807:0.815217 834:0.152174 855:0.503221 1004:0.213043 1103:0.111379 1191:0.0534085 1279:0.362319 1293:0.233641 1377:0.217391 1590:0.110306 2030:0.29372 2087:0.123994 2330:0.181159 2334:0.7343 2383:0.169082 2511:0.154589 2595:0.190821 2756:0.126006 2806:0.108696 2875:0.0797101 2911:0.374396 3133:0.90781 3285:0.1562 3432:0.291063 3453:0.396135 3588:0.369565 3742:0.181159 3861:0.068438 3999:0.594203 4068:0.247987 4199:0.163647 4345:0.160386 4504:0.227053 4591:0.299517 4821:0.300483 4994:0.757246 5046:0.31677 5118:0.215195 5406:0.299517 5483:0.28744 5531:0.0672128 5590:0.1407 5798:0.132448 5835:0.0720612 6004:0.201288 6173:0.0366345 6425:0.0555556 6446:0.155797 6505:0.223027 6529:0.152174 6592:0.173913 6606:0.929469 6665:0.227053 6696:0.550725 6759:0.181159 6831:0.222222 6886:0.256039 7048:0.0536769 7071:0.541063 7159:0.134058 7228:0.14372 7266:1 7334:1 7344:0.152174 7386:0.244767 7526:0.147343 7624:0.169565 7800:0.777778 7920:1 8128:0.173913 8301:0.0816425 8353:0.216586 8506:0.129952 8520:0.0721618 8578:0.0692432 8579:0.262319 8718:0.483092 8819:0.149758 8892:0.213043 8965:0.0869565 9021:0.673913 9237:0.139353 9239:0.0997239 9266:0.224638 9300:0.429952 9484:0.174718 
52.95269927898994 0 55.4331158381496 17.95220351523591 85.0104575569157 59.54069085758073 0 15.27189369057516 14.09016385624671 134:0.334742 153:0.112676 169:0.21831 236:0.114559 242:0.111502 336:0.123239 1004:0.177465 1011:0.600939 1043:0.626761 1191:0.155712 1193:0.427817 1279:0.264085 1349:0.696009 1371:0.162412 1429:0.0789808 1472:0.559859 1513:0.227465 1558:0.323944 1584:1 1736:0.137911 1806:0.410211 1864:0.623239 1960:0.106808 2064:1 2090:0.461268 2163:0.230634 2272:0.120423 2279:0.0767606 2395:0.221831 2531:1 2539:0.323944 2626:0.260563 2641:0.414487 2983:0.28169 3133:0.481221 3285:0.357814 3564:0.267606 3755:0.200857 3965:0.149648 4103:0.0443075 4139:0.788732 4235:0.588028 4395:0.133216 4419:0.700704 4439:0.187123 4538:0.93662 4799:0.65493 4919:0.20892 5046:0.538732 5326:0.647887 5506:0.238263 5531:0.0979792 5590:0.205106 5708:0.248239 5835:0.420188 5939:0.169014 5965:1 6087:0.153065 6173:0.0534038 6218:0.855634 6405:0.235915 6433:0.25 6529:0.332746 6702:0.28169 6732:0.152289 6947:0.262911 7048:0.234742 7127:1 7159:0.195423 7215:0.133233 7316:0.105448 7344:0.0739437 7519:0.302817 7526:0.0715962 7543:0.393086 7724:0.28169 7745:0.873239 7867:0.107394 8047:0.331992 8239:0.0709027 8396:0.0597491 8409:0.72007 8578:0.100939 8598:0.0589789 8624:0.221831 8650:0.128521 8737:0.126761 8892:0.177465 8965:0.126761 9052:0.53169 9059:1 9136:0.15996 9420:0.208627 
168.4664006160918 143.5921852937306 35.84412281334414 86.08466767388198 46.75297972572628 167.5789010683417 97.0903877972947 139.0925720190938 122.2063945273674 7:0.231944 88:0.384722 123:0.384444 315:0.440741 351:0.196605 409:0.190278 652:0.0803819 695:0.143403 741:0.261111 855:0.231481 1004:0.07 1043:0.494444 1325:0.0693142 1503:0.454167 1713:0.0986111 1728:0.685185 1790:1 1899:0.433333 2021:1 2059:0.186111 2163:0.181944 2178:0.25 2217:0.196605 2272:0.095 2321:0.294444 2383:0.194444 2493:0.215972 2555:0.140972 2626:0.411111 2724:0.173889 2776:0.227778 2799:0.241667 2806:1 3005:0.114815 3084:0.0824074 3105:0.212037 3133:0.0949074 3212:0.19375 3233:0.230556 3285:0.538889 3310:0.053869 3564:0.211111 3746:0.413889 3861:0.157407 4035:0.2 4062:0.250694 4103:0.0349537 4255:0.294444 4563:0.137037 4579:0.183333 4607:1 4953:0.592857 4994:0.870833 5046:0.303571 5056:0.140741 5265:0.398611 5419:0.411111 5531:0.14686 5560:0.0729167 5590:0.161806 5624:0.141667 5778:0.0861111 5798:0.152315 5835:0.248611 5852:0.170556 6035:0.306481 6173:0.0421296 6178:0.419444 6690:0.155 6702:1 6803:0.483333 7048:0.0617284 7172:0.0819444 7186:0.237654 7190:0.647222 7228:0.165278 7231:0.124537 7344:0.116667 7519:0.238889 7649:0.0803419 7985:1 7999:0.105556 8100:0.427778 8128:0.1 8239:0.167803 8440:0.194324 8459:0.320833 8506:0.149444 8578:0.0796296 8624:0.175 8650:0.202778 8698:0.0977778 8892:0.07 8943:0.161111 8947:0.104167 8956:0.109722 9112:0.227778 9197:0.183333 9450:0.197222 9464:0.39 9484:0.200926 9487:0.527778 
49.869104947579 89.71962268541951 136.7003826455561 63.16071120901277 110.7526291744753 87.70223150724412 169.0136368885937 171.4351977377957 84.19392999914933 7:0.0898816 42:0.080732 88:0.111814 120:0.0775027 166:0.0788482 236:0.175107 310:0.0457481 315:0.0853965 317:0.392896 336:0.113025 368:0.088267 372:0.0703459 478:0.0679943 584:0.0979548 652:0.0311491 667:0.0764263 676:0.0931109 681:0.034948 804:0.125404 855:0.0448511 865:0.290635 890:0.0475165 971:0.0945717 1004:0.271259 1137:0.0251166 1153:0.160926 1191:0.499821 1279:0.121098 1450:0.017069 1503:0.11733 1551:0.131324 1642:0.404377 1656:0.674919 1685:0.115331 1713:0.0764263 1736:0.12648 1813:0.0968784 1948:0.0572044 1960:0.0653032 1977:0.223897 1997:0.238967 2025:0.0914962 2059:0.0721206 2132:0.062894 2163:0.0705059 2182:0.140474 2192:0.0931109 2217:0.152374 2328:0.088267 2330:0.080732 2383:0.113025 2452:0.238967 2493:0.125538 2507:0.175099 2595:0.0850377 2602:0.337998 2626:0.0796555 2641:0.0633554 2744:0.0583423 2766:0.770721 2806:0.290635 2822:0.0582808 2936:0.0419643 3005:0.0444923 3016:0.0773681 3084:0.15967 3105:0.0410836 3115:0.0457481 3174:0.155005 3212:0.150161 3285:0.517095 3411:0.0383925 3432:0.0648547 3451:0.0958019 3474:0.0764263 3502:0.499462 3529:0.137783 3703:0.248654 3755:0.0153508 3861:0.0304987 3965:0.0457481 4062:0.194295 4087:0.100261 4103:0.0270901 4204:0.0896125 4299:0.155005 4351:0.204521 4355:0.0495156 4395:0.203624 4419:0.214209 4434:0.056333 4446:0.0678149 4538:0.0954431 4557:0.0387513 4607:0.387513 4644:1 4670:0.104413 4767:0.0624327 4772:0.219806 4885:0.0643862 4891:0.0974166 4919:0.063868 4940:0.128633 4958:0.0372443 5024:0.0958019 5046:0.258804 5056:0.109078 5322:0.0871905 5401:0.0293506 5487:0.213132 5531:0.0718866 5575:0.0407696 5611:0.168999 5616:0.0484392 5622:0.158773 5798:0.059024 5825:0.675996 5835:0.0963402 5846:0.0712235 5852:0.0660926 5992:0.0527449 6038:0.179665 6072:0.102945 6148:0.116254 6164:0.795479 6173:0.114281 6227:0.0318144 6253:0.0618945 6257:0.0712748 6297:0.0823466 6321:0.129171 6360:0.0583833 6446:0.208288 6459:0.113025 6485:0.0831924 6529:0.0678149 6571:0.0812702 6592:0.387513 6702:0.129171 6741:0.124865 6759:0.080732 6803:0.187298 6845:0.13563 6859:0.0847893 6886:0.114101 7025:0.16577 7048:0.0956823 7066:0.0369573 7072:0.0721206 7099:0.152545 7159:0.0597417 7228:0.0640474 7277:0.0576964 7304:0.0696089 7316:0.0322361 7344:0.0904198 7393:0.172228 7403:0.0511302 7421:0.0875493 7526:0.372085 7579:0.114532 7647:0.060549 7665:0.0575119 7674:0.103668 7724:0.258342 7732:0.249731 7745:0.133477 7815:0.185953 7867:0.032831 7944:0.131683 7949:0.0608181 7999:0.0818084 8106:0.299247 8128:0.116254 8175:0.0379403 8233:0.058127 8254:0.0314316 8294:0.0844995 8327:0.342842 8353:0.0965196 8380:0.0862935 8434:0.334769 8459:0.124327 8506:0.0579117 8520:0.192949 8579:0.428633 8624:0.203445 8650:0.196448 8718:0.215285 8737:0.0387513 8754:0.249731 8800:0.129171 8804:0.0832436 8851:0.0790195 8854:0.174996 8892:0.271259 8909:0.0183971 8958:0.20775 8965:0.0387513 9112:0.088267 9136:0.097801 9139:0.357374 9197:0.142088 9237:0.0310508 9266:0.100108 9280:0.0769645 9300:0.287406 9309:0.0836921 9417:0.150484 9429:0.381773 9432:0.0357374 9442:1 9450:0.0764263 
168.4664006160918 175.6347225389036 100.5202322357065 159.5641048136577 165.8830314818887 175.6943931610517 169.0136368885937 131.8384597647861 122.2063945273674 153:1 420:0.53625 834:0.39375 895:0.264962 1103:0.288194 2403:0.325 2459:1 2505:1 2527:0.306798 2575:1 2806:0.28125 2935:0.259375 2983:1 3285:0.577381 3611:0.36875 3755:0.534783 3861:0.354167 3960:1 4074:0.375 4614:0.44375 4965:0.9125 5447:1 5531:0.0347826 6073:0.259375 6087:0.271691 6098:0.45625 6173:0.0947917 6178:0.94375 6425:0.2875 6592:0.45 6702:0.25 7040:0.346023 7048:0.138889 7724:1 7867:0.38125 8018:0.5875 8166:1 8175:0.220291 8239:0.377557 8254:0.1825 8965:0.225 9301:1 9447:1 
168.4664006160918 175.6347225389036 136.7003826455561 159.5641048136577 165.8830314818887 201.401126861965 169.0136368885937 171.4351977377957 103.3576303081064 242:0.455635 895:0.304992 1063:0.640288 1191:0.159073 1436:1 1503:0.392086 1504:0.160072 1561:1 2667:0.438849 2936:0.280467 3285:0.265844 3434:0.453237 3755:0.102596 3846:1 4103:0.0905276 4204:0.998201 4315:1 4369:1 4446:0.453237 5046:0.471737 5282:1 5531:0.120113 5835:0.643885 5939:0.345324 6173:0.218225 6227:0.42526 6297:0.55036 7048:0.159872 7316:0.430897 7797:0.521583 8046:1 8106:1 8128:0.258993 8289:0.971223 8355:0.334532 8947:0.269784 
5.863746106732696 0 0 0 0 0 0 0 0 18:1 88:0.224838 153:0.207792 242:0.205628 310:0.275974 315:0.515152 392:1 420:0.557143 679:0.837662 868:0.704545 1004:0.327273 1225:1 1243:0.335807 1279:0.243506 1450:0.102968 1899:0.253247 2087:1 2132:0.126469 2806:0.584416 3285:0.239951 3373:0.192641 3755:0.185206 4719:0.74026 5046:0.141929 5118:0.578512 5494:1 5531:0.0361378 5835:0.387446 6073:0.269481 6173:0.0984848 6269:0.654762 6465:0.168489 6592:0.467532 7048:0.1443 7344:0.136364 7442:0.883117 7867:0.198052 7890:1 7953:0.818182 8028:0.748377 8041:0.248918 8100:1 8159:1 8355:0.301948 8357:0.101222 8550:0.75974 8578:0.186147 8611:1 8613:0.904762 8680:0.866883 8823:0.514286 8892:0.327273 8909:0.11098 9329:0.873377 
168.4664006160918 175.6347225389036 136.7003826455561 159.5641048136577 165.8830314818887 201.401126861965 169.0136368885937 171.4351977377957 122.2063945273674 7:0.35084 88:0.290966 122:0.264706 410:0.0378151 509:0.164566 584:0.127451 585:0.219655 653:0.457983 667:0.0994398 675:0.0837743 676:0.605742 855:0.116713 895:0.0593753 1004:0.211765 1043:0.12465 1092:0.0905696 1110:1 1122:0.361345 1128:0.114846 1199:0.147759 1293:0.0677362 1423:0.0497738 1505:0.242997 1534:0.0754302 1603:0.428571 1675:1 1685:0.22509 1706:0.120448 1736:0.0548553 1813:0.0630252 1905:0.0815826 1918:1 1993:0.106909 2059:0.0938375 2087:0.0718954 2207:0.14902 2272:0.0478992 2279:0.0915966 2287:0.148459 2375:1 2383:0.0490196 2384:0.203081 2388:1 2400:0.166667 2595:0.165966 2641:0.082433 2799:0.121849 2822:0.151661 2891:0.191176 3009:0.114846 3021:0.120448 3033:0.0821662 3105:0.0534547 3133:0.0478525 3156:0.0637255 3170:0.0807656 3200:0.112512 3212:0.195378 3285:0.478725 3321:0.19958 3381:0.219888 3416:0.0922369 3432:0.337535 3445:0.242997 3564:0.212885 3637:0.0477464 3641:0.212418 3706:0.12395 3719:0.272759 3927:0.190826 3935:0.141457 4062:0.126401 4101:0.0431373 4190:0.38282 4199:0.094888 4315:0.0778711 4561:0.44958 4688:0.134357 4714:0.302521 4729:0.102474 4777:0.040016 4801:0.0816993 4919:0.1662 4963:0.27479 5007:0.2493 5021:0.0887955 5046:0.122449 5056:0.141923 5255:0.0533964 5322:0.453782 5332:0.188609 5531:0.0311777 5590:0.0815826 5594:0.0511367 5612:0.276961 5616:0.0630252 5702:0.159664 5715:0.178805 5736:0.377218 5852:0.0859944 5928:0.0602241 5950:0.246499 5974:0.109944 6032:0.085084 6072:0.0669722 6073:0.0581232 6087:0.0608832 6112:0.128852 6128:0.259804 6149:0.279178 6155:0.0463741 6425:0.0966387 6446:0.0903361 6502:0.0987395 6511:0.0904762 6529:0.132353 6581:0.260504 6696:0.319328 6702:0.168067 6778:0.0952381 6786:0.140756 6886:0.0742297 6918:0.123249 6947:0.104575 7045:0.0641457 7069:0.10119 7078:0.14986 7186:0.119826 7214:0.0444178 7228:0.166667 7277:0.15014 7344:0.0294118 7416:0.126313 7421:0.113912 7526:0.313259 7579:0.0372549 7647:0.0787815 7707:0.134454 7913:0.131653 7999:0.0532213 8041:0.0536881 8044:0.134454 8069:0.278711 8313:0.194818 8384:0.156513 8484:0.175537 8502:1 8572:0.140856 8578:0.0401494 8579:0.659104 8650:0.153361 8892:0.211765 8901:0.294678 8909:0.0957474 8923:0.285714 8963:0.119748 8965:0.10084 8989:0.154995 9021:0.0651261 9133:0.376751 9136:0.0636255 9420:0.0829832 9464:0.131092 
168.4664006160918 131.2905843626051 136.7003826455561 159.5641048136577 117.008408573391 201.401126861965 120.3261786690039 171.4351977377957 122.2063945273674 88:0.438291 514:0.955696 666:0.775769 1429:0.283931 2132:0.246534 2212:0.974684 2595:1 2936:0.493479 3152:1 4035:0.455696 4103:0.159283 4904:1 5046:0.553345 5531:0.0704458 5638:1 5939:0.607595 6173:0.191983 6529:0.398734 6592:0.911392 6702:0.506329 6891:1 7048:0.281294 8128:0.455696 
168.4664006160918 175.6347225389036 136.7003826455561 159.5641048136577 165.8830314818887 201.401126861965 169.0136368885937 171.4351977377957 122.2063945273674 57:1 217:0.211448 315:0.480808 1004:0.305455 1401:1 1479:0.49697 1695:0.191919 1813:0.272727 2217:0.214478 2332:0.237818 2383:0.212121 2405:1 2595:0.478788 2799:0.527273 3285:0.335931 3706:0.536364 3834:1 4031:1 4395:0.229293 4422:0.264069 5230:1 5531:0.0674572 5846:0.40101 5877:1 6485:0.936797 6529:0.190909 6635:0.733333 6702:0.242424 7159:0.336364 7521:0.493939 7545:0.15303 7620:0.759091 8045:1 8175:0.213616 8178:1 8254:0.17697 8361:1 8737:0.218182 8892:0.305455 8909:0.103581 9078:0.381818 9309:0.471212 
168.4664006160918 175.6347225389036 136.7003826455561 159.5641048136577 165.8830314818887 201.401126861965 169.0136368885937 171.4351977377957 122.2063945273674 7:0.131083 44:0.580848 88:0.217425 236:0.10215 336:0.0549451 368:0.0643642 704:0.0953689 865:0.423862 1004:0.178022 1137:0.03663 1191:0.242979 1349:0.310309 1450:0.0746804 1504:0.104788 1534:0.0845481 1550:0.100863 1685:0.0840996 1985:0.133438 1993:0.119833 2041:0.0521676 2192:0.135793 2206:0.190738 2279:0.0684458 2332:0.0616013 2395:0.0989011 2514:0.354564 2595:0.0620094 2641:0.0923974 2678:0.217687 2744:0.0850863 2806:0.141287 2875:0.103611 2936:0.367204 2973:0.464417 2995:0.0845107 3005:0.0648875 3084:0.0465725 3164:0.286107 3184:0.208791 3242:0.158556 3285:0.377065 3310:0.030444 3368:0.0813187 3386:0.185243 3432:0.189168 3434:0.0989011 3451:0.139717 3460:0.0934066 3481:1 3564:0.119309 3755:0.0223876 3785:0.0805861 4012:0.197802 4103:0.0790162 4247:0.0408163 4299:0.22606 4315:0.174568 4356:1 4395:0.178179 4636:0.348509 4723:0.0886366 4729:0.114861 4801:0.18315 4885:0.281702 4994:0.492151 5040:0.139717 5046:0.240188 5201:0.331464 5230:0.19427 5283:0.142072 5380:1 5531:0.148522 5570:0.117739 5607:0.026759 5624:0.0800628 5637:0.674411 5788:0.0728414 5891:0.107886 5937:0.117067 5992:0.0769231 6011:0.17033 6087:0.0682427 6163:0.0953689 6173:0.0714286 6333:0.322344 6475:0.120879 6529:0.197802 6665:0.147567 6686:0.284144 6759:0.706436 6788:0.381476 6843:0.063056 7032:0.103611 7048:0.139543 7159:0.261381 7210:0.161695 7215:0.0594007 7218:0.298273 7344:0.0989011 7353:0.142072 7526:0.191523 7724:0.125589 7867:0.191523 7944:0.384092 7999:0.0596546 8091:0.0463108 8128:0.11303 8137:1 8229:0.0989011 8289:0.0423862 8327:1 8520:0.0468995 8579:0.568289 8653:0.0702512 8823:0.124333 8892:0.178022 8909:0.0268303 8947:0.0588697 8973:0.10832 9008:0.105181 9112:0.128728 9180:0.137624 9237:0.0452844 9239:0.0648127 9309:0.122057 9335:0.0374523 9406:0.161695 
168.4664006160918 137.1005987721454 136.7003826455561 159.5641048136577 165.8830314818887 158.8206759186213 169.0136368885937 171.4351977377957 122.2063945273674 7:0.180151 88:0.0373517 166:0.0790183 305:0.132686 461:0.0503089 478:0.068141 627:0.047062 667:0.0765912 676:0.186624 741:0.101402 828:0.0658037 855:0.0898957 970:0.546926 1004:0.217476 1191:0.0477047 1193:0.262136 1273:1 1450:0.0684235 1479:0.265372 1541:0.141316 1621:0.216828 1685:0.11558 1695:0.0341604 1721:0.943905 1736:0.253506 1813:0.0485437 2032:0.0809061 2055:0.140237 2059:0.0722762 2097:0.772384 2145:0.173679 2272:0.0368932 2279:0.0705502 2383:0.0377562 2457:1 2595:0.0852211 2626:0.31931 2799:0.0938511 2927:0.118231 2948:0.533981 2949:0.0873786 2987:1 3005:0.0891766 3021:0.0927724 3212:0.0752427 3233:0.0895361 3285:0.398623 3411:0.0769507 3432:0.0649946 3453:0.0442287 3564:0.0819849 3611:0.0636462 3673:0.0523193 3711:0.126933 3767:0.0809061 3840:0.274272 3965:0.0458468 4101:0.0996764 4103:0.0407228 4104:0.0981661 4139:0.24164 4309:0.272923 4351:0.204962 4395:0.244876 4454:0.0541532 4523:0.226537 4538:0.095649 4557:0.0776699 4568:0.524272 4620:0.101402 4670:0.209277 4671:0.0781322 4799:0.200647 4917:0.0814455 4919:0.0640058 4940:0.12891 5046:0.306519 5056:0.16397 5322:0.349515 5522:0.290183 5527:0.0742539 5530:0.793295 5531:0.153089 5590:0.0628371 5637:0.154477 5738:0.22438 5798:0.0591514 6072:0.257919 6173:0.0818051 6257:1 6259:0.0524991 6297:0.0825243 6320:0.175297 6321:0.0647249 6333:0.110752 6433:0.153182 6446:0.0695793 6480:0.0938511 6510:0.0352391 6529:0.101942 6592:0.0776699 6627:0.0325782 6675:0.0500539 6690:0.0601942 6696:0.122977 6702:0.30205 6781:0.0288565 6803:0.187702 6818:0.0949299 6886:0.0571737 6908:0.375405 7008:0.285817 7048:0.0958888 7112:0.22402 7127:0.306365 7155:0.126483 7159:0.119741 7172:0.0636462 7186:0.184586 7210:0.277778 7215:0.0408179 7277:0.231284 7344:0.249191 7526:0.197411 7579:0.0860841 7587:0.0230852 7680:0.0933118 7688:0.0622977 7788:0.412513 7797:0.0782093 7815:0.186354 8128:0.038835 8166:0.0862999 8277:0.132686 8287:0.0566343 8294:0.169364 8314:0.177454 8335:0.404993 8357:0.0168158 8360:0.0364363 8380:0.172959 8409:0.882416 8506:0.232147 8520:0.12891 8603:0.0717368 8624:0.135922 8650:0.236246 8699:0.0643653 8737:0.15534 8802:0.154261 8854:0.0876869 8892:0.271845 8965:0.038835 8980:0.12945 8999:0.213592 9021:0.0501618 9044:0.0262707 9114:0.325782 9121:0.765912 9180:0.0945703 9184:0.15534 9197:0.0711974 9210:0.220065 9237:0.0311177 9392:0.0652643 9417:0.150809 9429:0.191298 9432:0.0358145 9450:0.0765912 9484:0.312118 
103.7230498021486 43.36929163440776 0 2.736364849336485 0 0 0 108.0942083920293 0 88:0.0986869 169:0.0252443 247:0.0403094 275:0.104642 310:0.0519137 336:0.285016 392:0.0627036 503:0.407003 514:0.522598 575:0.0546766 594:0.0218241 627:0.00592108 652:0.0235647 676:0.0704397 804:0.806393 838:0.105456 843:0.00944625 877:0.0500814 1001:0.0583605 1004:0.117997 1006:0.0712541 1046:0.264454 1063:0.289902 1189:0.0946661 1191:0.0270087 1242:0.132736 1243:0.0210563 1279:0.0152687 1288:0.399023 1337:0.0419381 1361:0.44717 1374:0.0256515 1399:0.0301303 1423:0.0289401 1429:0.0639307 1481:0.0442066 1503:0.421621 1504:0.0362378 1559:0.175896 1685:0.0218125 1695:0.0128936 1713:0.0289088 1736:0.0637894 1790:0.02443 1813:0.0183225 1819:0.0434504 1899:0.0476384 1977:0.0564604 1985:0.0346091 1987:0.0777687 2041:0.0135304 2056:0.0777687 2059:0.0272801 2275:0.0356949 2321:0.0863192 2328:0.0333876 2329:1 2332:0.0159772 2357:0.172638 2378:0.00641287 2383:0.0142508 2395:0.0256515 2459:0.0162866 2493:0.0316572 2531:0.0385451 2567:0.0301303 2595:0.0482492 2626:0.542345 2641:0.0239646 2724:0.0254886 2744:0.0220684 2797:0.0667752 2799:0.0354235 2806:0.769544 2935:0.0337948 2936:0.0158733 2998:0.021987 3005:0.0168295 3017:0.0287731 3105:0.0777009 3151:1 3212:0.0283998 3213:0.0256515 3283:0.0181868 3285:0.282108 3304:0.0724756 3310:0.0157922 3411:0.0145223 3421:0.0354235 3432:0.0735953 3452:1 3453:0.0500814 3460:0.0242264 3564:0.526059 3611:0.0240228 3627:0.108306 3635:0.0806189 3637:0.041642 3746:0.0606678 3755:0.0174196 3833:0.0594463 3863:0.0739685 3894:0.0198154 3922:0.0903909 3960:0.19544 3983:0.0677932 4052:0.0208469 4087:0.0948115 4103:0.010247 4153:1 4165:0.0545603 4247:0.0211726 4255:0.0431596 4375:0.599349 4395:0.292685 4405:0.110953 4419:0.0810261 4544:0.0180093 4607:0.14658 4660:0.0187296 4709:0.0221906 4719:0.0464169 4723:0.0114946 4801:0.0237514 4940:0.145969 4961:0.0506922 4963:0.079886 5007:0.0362378 5046:0.0889949 5056:0.0206298 5118:0.344611 5229:0.0277382 5241:0.0821458 5326:0.112378 5477:0.0225299 5531:0.0475853 5575:0.0154214 5599:0.0631107 5616:0.0183225 5624:0.0207655 5655:0.686245 5667:0.0525244 5685:0.299674 5734:0.0409202 5736:0.0274159 5798:0.0223263 5806:0.029791 5835:0.0728827 5852:0.075 5897:0.0232085 5906:0.227199 5939:0.0390879 5965:0.0289088 6038:0.0339799 6056:0.0150651 6072:0.0584098 6073:0.118282 6088:0.0777687 6173:0.00617535 6227:0.0361021 6259:0.0198154 6269:0.0136853 6359:0.0220684 6412:0.204805 6425:0.0280945 6429:0.118282 6446:0.105049 6465:0.0105649 6480:0.0354235 6505:0.15038 6529:0.0641287 6584:0.0181868 6592:0.0879479 6641:0.0254886 6665:0.688925 6690:0.0227199 6702:0.0814332 6885:0.0529316 6886:0.0431596 6908:0.637622 6956:0.0451954 7024:0.109121 7032:0.026873 7048:0.0361925 7074:0.0370521 7075:0.0922231 7119:0.0115816 7159:0.0903909 7172:0.0120114 7190:0.0948697 7199:0.0500814 7210:0.754886 7214:0.012913 7228:0.0242264 7277:0.0654723 7316:0.0731613 7344:0.0598534 7393:0.0325733 7421:0.0662324 7442:0.0553746 7500:0.0242264 7526:0.0662324 7543:1 7555:0.0386808 7581:0.0461116 7624:0.0428746 7707:0.0390879 7713:0.0110414 7724:0.211726 7732:0.0134946 7797:0.0295195 7809:0.0584283 7826:1 7867:0.0124186 7935:0.476792 7949:0.0230049 7953:0.0256515 8041:0.015608 8100:0.0627036 8128:0.0439739 8148:0.0912052 8239:0.0163977 8353:0.0730185 8355:0.0567997 8357:0.012694 8396:0.0069091 8489:0.0541531 8506:0.0219055 8520:0.0364923 8530:0.286645 8571:0.0732899 8579:0.0147394 8598:0.00682003 8613:0.0283659 8624:0.0256515 8639:0.0720684 8650:0.0445847 8680:0.0362378 8698:0.0429967 8727:0.0374593 8766:0.0326751 8800:0.0488599 8854:0.0992904 8883:0.0496743 8892:0.117997 8965:0.029316 9008:0.0545603 9021:0.0189332 9044:0.00991569 9052:0.0614821 9101:0.12785 9180:0.0356949 9187:0.2443 9188:0.0519137 9266:0.151466 9278:1 9300:0.65228 9329:0.0547638 9432:0.0270358 9433:0.0492671 9443:0.0287052 
168.4664006160918 175.6347225389036 136.7003826455561 106.1747216725909 70.41657764150273 201.401126861965 129.0407476485314 136.4339707655916 72.87768621289357 68:0.0205514 88:0.282976 99:0.117686 111:0.0278958 127:0.0282772 153:0.0104609 242:0.124224 269:0.0660347 271:1 310:0.416803 392:0.415332 594:0.0175221 652:0.047299 653:0.0213795 721:0.041081 743:0.0249537 855:0.040863 856:0.198976 950:0.0271331 1004:0.12357 1085:0.0662962 1377:0.0882641 1423:0.220736 1429:0.197981 1479:0.0268061 1481:0.106477 1484:0.0670154 1513:0.021118 1534:0.264092 1551:0.0398823 1559:0.0706113 1590:0.0149286 1596:0.409284 1734:0.0397597 1757:0.0411899 1813:0.0441321 1944:0.0343249 1953:0.0355236 1960:0.00991609 2032:0.0245178 2052:0.0889179 2083:0.0827721 2217:0.0231376 2218:0.010134 2222:0.0372671 2244:0.602811 2271:0.600915 2275:0.0286586 2328:0.0268061 2383:0.0114416 2436:0.0778032 2493:0.0127084 2511:0.271984 2516:0.0494279 2579:0.044459 2595:0.0129127 2599:0.414841 2626:0.169336 2641:0.0192406 2667:0.0199412 2756:0.034107 2806:0.250082 2822:0.0353991 2839:0.0562275 2998:0.0176528 3005:0.013512 3017:0.0693037 3105:0.0249537 3111:0.054593 3203:1 3233:0.0271331 3285:0.504335 3291:0.0217391 3320:0.0313828 3322:0.047728 3368:0.0169336 3416:0.107645 3432:0.0590879 3444:0.512586 3474:0.0696306 3480:0.0214667 3560:0.337793 3584:0.0601504 3611:0.0192873 3673:0.0475646 3755:0.0139858 3774:0.172932 3785:0.0335622 3808:0.0102232 3810:0.103367 3833:0.668192 3858:0.03011 3966:0.511278 3973:0.0119543 4062:0.0295031 4087:0.0152244 4101:0.0100686 4103:0.00822709 4387:0.2746 4395:0.247358 4397:0.0553122 4424:0.015528 4425:0.0709382 4446:0.020595 4524:0.0295303 4579:0.323635 4660:0.135338 4670:0.0317097 4719:0.0745342 4729:0.047837 4893:0.0139479 4928:0.0568297 4961:0.0678326 4963:0.192416 5007:0.0290945 5046:0.321534 5056:0.0993789 5109:0.0235371 5118:0.232994 5137:0.283426 5167:0.135011 5278:0.0382478 5306:0.0661981 5322:0.0264792 5390:0.0177618 5395:0.42049 5494:0.0503432 5527:0.0225019 5531:0.0418437 5575:0.185722 5655:0.308543 5667:0.0843413 5831:0.045358 5835:0.00975264 5852:0.0401438 5936:0.0843413 6038:0.0272816 6048:0.040972 6073:0.0813992 6173:0.00495805 6216:0.188188 6218:0.0794377 6224:0.132069 6303:0.852446 6321:0.0196143 6326:1 6394:0.305655 6425:0.037594 6446:0.0421706 6485:0.025265 6502:0.0230467 6529:0.185355 6584:0.277433 6662:0.0233737 6702:0.0130762 6732:0.240356 6786:0.0328539 6831:0.406015 6886:0.0346518 6898:0.822491 6925:0.0253351 7038:0.0460935 7040:0.0120657 7159:0.0181432 7178:0.228366 7199:0.140732 7210:0.45456 7215:0.0123695 7344:0.0343249 7386:0.0331263 7416:0.117931 7436:0.0732265 7503:0.031964 7521:0.0799281 7526:0.0598235 7546:0.0521412 7565:0.0204642 7614:0.0381388 7713:0.221622 7728:0.0778032 7732:0.0541727 7753:0.122589 7888:0.0209219 7906:0.0817261 7931:0.0181977 7948:0.0296666 7953:0.0823799 7996:0.0254985 8041:0.250627 8091:0.0192873 8100:0.0503432 8204:0.0267127 8254:0.0381824 8257:0.0294759 8289:0.167702 8357:0.0152876 8380:0.0262068 8408:0.600196 8419:0.0189604 8447:1 8508:0.019422 8529:0.129454 8578:0.0187425 8579:0.177509 8650:0.011932 8698:0.011507 8737:0.0117686 8823:0.233017 8851:0.311971 8883:0.0199412 8892:0.131808 8901:0.0343903 8937:0.0908794 8951:0.0960009 8965:0.0235371 9044:0.00796108 9080:0.0613926 9136:0.0445524 9237:0.0377197 9280:0.0233737 9300:0.0290945 9307:0.0753514 9317:0.201046 9340:0.144655 9360:0.0899804 9412:0.200937 9443:0.322654 9464:0.0152991 9500:0.590389 9504:0.0471676 
0 0 22.81001189574388 0 0 53.02082909293056 0 0 0 18:0.222222 88:0.112419 310:0.137987 461:0.302834 478:0.205087 676:0.280844 843:0.225974 855:0.135281 895:0.275285 946:0.415584 1191:0.215368 1279:0.243506 1388:0.688312 1429:0.0728265 1503:0.176948 1583:0.704545 1661:0.133117 1956:0.928571 1982:1 1993:0.743506 2087:0.166667 2184:0.0827922 2230:0.480519 2275:0.284632 2383:0.113636 2493:0.378653 2595:0.128247 2626:0.961039 2724:0.203247 2853:0.230519 2949:0.525974 3021:0.279221 3133:0.887446 3285:0.419913 3291:0.215909 3310:0.0629638 3353:1 3404:0.814935 3422:0.119557 3474:0.230519 3564:0.246753 3712:0.282468 3755:0.092603 3767:0.243506 4017:0.441558 4068:1 4079:0.316558 4103:0.08171 4204:0.36039 4454:0.162987 4487:0.210789 4961:0.13474 5007:0.288961 5040:0.288961 5046:0.851577 5109:0.233766 5118:0.144628 5322:0.262987 5389:0.987013 5477:0.269481 5531:0.0361378 5806:0.237554 5835:0.387446 5973:0.18477 6032:0.19724 6035:0.358225 6163:0.19724 6173:0.0984848 6395:0.180736 6446:0.209416 6529:0.204545 6592:0.233766 6602:0.188312 6684:0.243506 7025:1 7040:0.119835 7048:0.1443 7118:0.25 7192:0.0558744 7199:0.199675 7215:0.122851 7247:0.168831 7386:0.329004 7526:0.0660173 7713:0.528266 7854:0.214286 7867:0.099026 7996:0.0844156 8049:0.0918367 8078:0.608766 8312:0.720779 8355:0.301948 8520:0.0969968 8578:0.186147 8737:0.116883 8943:0.188312 8965:0.233766 9080:0.203247 9280:0.232143 9432:0.107792 
0 0 0 7.913166043148692 60.87763485423031 23.31901561633558 0 9.168185722144534 21.88767279230713 276:1 503:1 804:0.489496 1004:0.264706 1279:0.157563 1504:0.0934874 1513:0.135714 1590:0.191877 1661:0.861345 1853:1 2141:0.289076 2206:0.510504 2383:0.147059 2395:0.264706 2493:0.16334 3009:0.344538 3016:0.301996 3175:1 3212:0.293067 3285:0.504602 3373:0.12465 3467:1 3580:0.466387 3746:0.62605 3755:0.0599196 3861:0.119048 3945:0.227731 4043:1 4076:0.235294 4103:0.0528711 4355:0.386555 4660:0.193277 4821:0.261345 5007:0.37395 5046:0.183673 5477:0.116246 5531:0.0701498 5575:0.159139 5736:0.282913 5751:0.994398 5798:0.460784 5810:0.572829 5835:0.12535 5995:1 6048:0.219421 6056:0.155462 6173:0.0637255 6269:0.141223 6297:0.321429 6428:0.257703 6516:0.293768 6539:1 6592:0.302521 6658:1 7040:0.15508 7048:0.0933707 7210:0.108193 7344:0.0882353 7526:0.0854342 7563:1 7728:1 7867:0.128151 8128:0.151261 8138:0.652661 8506:0.22605 8680:0.186975 8892:0.264706 8901:0.442017 9008:0.281513 9180:0.368347 9197:0.831933 9237:0.484809 9266:0.781513 9432:0.139496 
28.77347409515357 90.65973499332891 7.623391188869587 38.63550272930851 29.45768903109792 47.38435627092446 34.18722724228212 39.59673797300951 51.69140680720541 88:0.122784 120:0.255319 153:0.113475 425:0.264775 998:1 1388:0.751773 1590:0.161939 1956:0.507092 2041:0.11784 2383:0.248227 2493:0.275709 2516:0.893617 2579:0.48227 2595:0.140071 2599:1 2641:0.208713 2677:0.0851064 2744:0.192199 2799:0.617021 2869:0.890071 3005:0.439716 3105:0.270686 3108:0.114539 3133:0.121158 3240:0.255319 3285:0.491388 3355:1 3498:0.183688 3673:0.171986 3755:0.0505705 3757:0.574468 3785:0.182033 4035:0.382979 4103:0.0446217 4116:1 4397:1 4504:1 4530:0.652482 4740:0.329787 4970:0.265957 4985:0.702128 5056:0.179669 5531:0.0592044 5703:0.237589 5708:1 5736:0.477541 5778:0.109929 5788:0.164539 5806:0.778369 5810:0.483452 5835:0.105792 6032:0.215426 6173:0.0537825 6333:0.364066 6529:0.111702 6592:0.255319 6732:0.153369 6733:0.606383 6843:0.142435 7024:0.237589 7025:0.546099 7038:1 7048:0.0788022 7457:0.287234 7526:0.216312 7688:0.204787 7713:0.384647 7728:0.843972 7867:0.108156 8041:0.135934 8312:0.262411 8431:1 8598:0.118794 8613:0.247045 8634:0.861702 8821:1 8965:0.12766 8994:1 9055:1 9080:0.221986 9136:0.161094 9266:0.329787 
168.4664006160918 175.6347225389036 80.4070047192988 110.8451206804665 165.8830314818887 201.401126861965 99.29716302335882 29.82221734459301 33.46119175142272 68:0.145862 88:0.160673 387:0.511601 666:0.189592 676:0.401392 747:0.381671 774:0.0435791 809:0.223511 843:0.0538283 946:0.148492 950:0.0962877 1069:0.0928074 1085:0.104563 1388:0.737819 1484:0.0951276 1503:0.37935 1590:0.105955 1695:0.440835 1710:0.689095 1757:0.146172 1899:0.0904872 2041:0.0771016 2213:1 2218:0.287703 2230:0.343387 2235:0.276102 2244:0.534803 2275:0.203403 2383:0.243619 2449:0.224285 2493:0.0901972 2516:0.467749 2555:0.117749 2562:0.296984 2626:0.515081 2667:0.141531 2727:0.637278 2799:0.201856 2853:0.164733 3017:0.16396 3084:0.0688322 3105:0.0885538 3186:0.181555 3285:0.450116 3414:0.156778 3554:1 3584:0.213457 3673:0.225058 3712:0.403712 3755:0.198527 3785:0.119103 4103:0.0583913 4309:0.587007 4395:0.175561 4532:0.75174 4719:0.264501 4729:0.16976 4820:0.145244 4970:0.174014 5046:0.304276 5322:0.187935 5329:0.312452 5390:0.252127 5494:0.357309 5527:0.958237 5531:0.0645617 5590:0.405452 5607:0.0790972 5667:0.299304 5708:0.163573 5788:0.215313 5835:0.207657 5936:0.299304 5973:0.264079 6032:0.140951 6048:0.0121165 6173:0.070379 6425:0.213457 6446:0.299304 6584:0.103635 6592:0.167053 6603:0.307369 6944:0.721578 7024:0.155452 7032:0.153132 7040:0.042818 7048:0.103119 7159:0.12877 7167:0.24594 7192:0.0399288 7228:0.276102 7579:0.0617169 7674:0.111726 7867:0.212297 7938:0.189675 8041:0.355762 8078:0.217517 8091:0.0684455 8312:0.515081 8409:0.948956 8468:0.310905 8520:0.138631 8552:0.327146 8821:0.327146 8823:0.183759 8883:0.141531 8884:0.180974 8965:0.167053 8994:0.163573 9080:0.145244 9132:0.37819 9281:0.208817 9381:1 9443:0.163573 
168.4664006160918 175.6347225389036 136.7003826455561 159.5641048136577 165.8830314818887 201.401126861965 169.0136368885937 171.4351977377957 122.2063945273674 7:0.0858171 25:0.760534 134:0.0488523 153:0.032888 203:0.0739979 275:0.528263 276:0.489209 315:0.0815348 331:0.0637205 387:0.0647482 443:0.0945529 503:0.146763 584:0.0935252 774:0.0386076 823:0.354573 855:0.171292 933:0.115108 1004:0.0258993 1182:0.213772 1191:0.227247 1243:0.159448 1279:0.115622 1328:0.381638 1481:0.334753 1503:0.168037 1504:0.0228674 1534:0.0553516 1590:0.0469339 1661:0.126413 1672:0.170606 1695:0.0325454 1734:1 1754:0.0520726 1806:0.119733 1813:0.0924974 1953:0.111682 1993:0.156903 2041:0.136612 2059:0.137718 2145:0.165468 2182:0.134121 2192:0.177801 2216:0.0290474 2217:0.109113 2218:0.0318602 2230:0.304214 2272:0.035149 2275:0.0900993 2332:0.0806578 2370:1 2383:0.0719424 2395:0.258993 2431:0.295992 2493:0.159815 2532:0.0303186 2567:0.152107 2595:0.0405961 2626:0.0760534 2641:0.120981 2652:0.0748544 2677:0.172662 2724:0.128674 2789:0.329908 2799:0.178828 2822:0.0556453 2935:0.0426516 3005:0.0424803 3017:0.0726276 3105:0.117677 3183:0.199383 3212:0.286742 3285:0.607644 3304:0.182939 3373:0.304899 3432:0.0619219 3474:0.0729702 3564:0.0781089 3584:0.0945529 3635:0.203494 3637:0.0350369 3673:0.0498458 3755:0.0293132 3785:0.0527578 3814:0.0370724 3966:0.0945529 4035:0.036999 4076:0.057554 4103:0.025865 4395:0.233299 4451:1 4454:0.257965 4481:0.10483 4504:0.193217 4544:0.0909163 4619:0.759507 4660:0.0472765 4671:0.0744384 4723:0.0290142 4740:0.0955807 4778:0.183967 4919:0.12196 4953:0.146234 5007:0.0914697 5040:0.274409 5046:0.134782 5056:0.104145 5112:0.18705 5115:0.167376 5118:0.0457816 5278:0.120247 5359:0.213772 5464:0.254882 5477:0.199041 5531:0.0686358 5575:0.077852 5590:0.119733 5646:0.149024 5667:0.13258 5798:0.0563549 5804:0.0793936 5835:0.275951 5936:0.13258 6032:0.124872 6072:0.0491451 6073:0.0853032 6098:0.0750257 6148:0.110997 6173:0.0155875 6259:0.0500171 6324:0.0948099 6333:0.105516 6433:0.14594 6446:0.0662898 6465:0.0800022 6529:0.0647482 6592:0.0739979 6646:0.0768756 6686:0.0930113 6690:0.0573484 6845:0.0647482 6869:0.223535 6886:0.217883 7040:0.0189666 7048:0.0228389 7094:0.0914697 7155:0.241007 7159:0.11408 7192:0.0176868 7199:0.316033 7228:0.183453 7296:0.0945529 7344:0.0647482 7416:0.27807 7431:1 7457:0.0832477 7489:0.0359712 7526:0.271668 7579:0.109353 7647:0.0578109 7691:0.0592669 7713:0.0557403 7797:0.149024 7800:0.330935 7809:0.147482 7859:0.145466 7867:0.0313464 7999:0.0390545 8015:0.162384 8041:0.275779 8178:0.169579 8204:0.0279939 8278:0.251799 8294:0.242035 8355:0.0955807 8357:0.0160208 8506:0.0552929 8520:0.122816 8578:0.0589243 8623:0.929085 8624:0.129496 8650:0.0375128 8892:0.0258993 8926:0.166495 8942:0.0709147 8965:0.110997 8980:0.12333 8994:0.0724563 9008:0.0688592 9021:0.191161 9085:0.0530025 9094:0.0570401 9180:0.0900993 9197:0.47482 9210:0.0698869 9237:0.118586 9266:0.0955807 9300:0.0914697 9329:0.138232 9333:0.353546 9392:0.0621788 9420:0.0608941 9443:0.0724563 9464:0.0480987 9484:0.148681 9508:0.0914697 
0 0 11.39329475429264 0 0 0 0 0 0 18:0.0195556 44:0.422857 217:0.039873 368:0.0468571 387:0.036 584:0.104 667:0.0811429 704:0.138857 741:0.107429 804:0.133143 838:0.296 890:0.050449 1004:0.144 1077:0.401143 1096:0.0678095 1137:0.0266667 1189:0.0885714 1191:0.0252698 1279:0.0428571 1513:0.0738286 1534:0.061551 1550:0.0734286 1559:0.246857 1661:0.0937143 1713:0.0405714 1721:1 1736:0.0895238 1862:1 2059:0.153143 2132:0.0222585 2158:0.0409143 2192:0.0988571 2217:0.0404444 2279:0.149486 2323:0.716571 2332:0.0448457 2395:0.072 2452:0.761143 2468:0.411429 2479:0.175619 2496:0.124952 2527:0.224401 2532:0.0337143 2595:0.0451429 2635:0.293714 2641:0.134531 2678:0.0792381 2799:0.0994286 2806:0.72 2822:0.0618776 2839:0.196571 2879:0.161143 2934:0.0689524 2936:0.178216 2948:0.565714 2977:0.0173061 3016:0.246429 3084:0.339048 3210:0.212571 3240:0.164571 3285:0.432871 3304:0.203429 3310:0.0221633 3362:0.0518571 3432:0.206571 3434:0.216 3441:0.0806349 3564:0.173714 3637:0.0779221 3679:0.072 3748:0.0777143 3833:0.166857 3927:0.155714 3933:0.0937143 4087:0.0532245 4103:0.014381 4315:0.158857 4352:0.0624762 4369:0.317714 4395:0.129714 4539:0.0388571 4660:0.0525714 4671:0.0827755 4723:0.0967912 4729:0.083619 4885:0.0683598 4886:0.0564156 4893:0.024381 4909:0.0714286 4931:0.546286 4940:0.136571 4965:0.500571 5046:0.224816 5056:0.173714 5182:0.155048 5201:0.241306 5283:0.103429 5296:0.164571 5380:0.728 5477:0.0948571 5531:0.143106 5575:0.0432857 5835:0.102286 5891:0.196353 6024:0.263429 6032:0.0694286 6072:0.0546494 6087:0.496807 6173:0.0693333 6303:0.0496692 6446:0.0737143 6485:0.0883265 6529:0.072 6592:0.246857 6641:0.0357714 6690:0.127543 6702:0.0914286 6759:0.257143 6820:0.106514 6859:0.090022 6891:0.180571 6956:0.126857 7078:0.122286 7099:0.485878 7159:0.126857 7172:0.0337143 7210:0.117714 7214:0.0724898 7218:0.217143 7266:0.946286 7344:0.096 7351:0.111543 7444:0.212 7521:0.186286 7526:0.209143 7724:0.228571 7732:0.15151 7753:0.0428571 7886:0.100343 7919:0.110095 7929:0.522286 8125:0.286857 8128:0.123429 8135:0.21581 8137:0.728 8210:0.0500952 8245:0.710857 8287:0.06 8327:0.364 8355:0.106286 8357:0.0534454 8489:0.152 8491:0.184686 8513:0.0430476 8520:0.0341429 8579:0.8688 8650:0.208571 8766:0.0917143 8892:0.144 8901:0.120229 8943:0.198857 8965:0.0411429 8973:0.157714 8989:0.252952 9008:0.0765714 9021:0.106286 9085:0.0589388 9112:0.0937143 9128:0.118367 9181:0.206857 9197:0.0754286 9356:0.111238 9428:0.14 9450:0.0811429 
168.4664006160918 175.6347225389036 136.7003826455561 159.5641048136577 165.8830314818887 201.401126861965 169.0136368885937 171.4351977377957 122.2063945273674 7:0.186523 88:0.206255 217:0.0259783 226:0.0975428 265:0.166791 315:0.0590717 387:0.0469099 392:0.0573343 404:0.0908414 443:0.0685034 459:0.214445 558:0.0498883 584:0.0677587 676:0.128816 756:0.108662 787:0.0316117 837:0.27029 838:0.192852 855:0.1241 871:0.0392777 950:0.030901 997:0.154133 1004:0.225168 1097:0.207744 1188:0.0356263 1279:0.0279226 1283:1 1334:0.232316 1364:0.0699926 1399:0.110201 1423:0.026462 1450:0.0236145 1472:0.118392 1479:0.0610573 1484:0.0305287 1551:0.0454207 1685:0.0398894 1695:0.0235791 1713:0.0264334 1736:0.0291636 1870:0.0981633 1899:0.0290395 1905:0.0867461 1953:0.0809134 2059:0.249442 2087:0.0382229 2158:0.0266567 2182:0.0971705 2192:0.064408 2216:0.0420896 2217:0.0263506 2218:0.0230827 2238:0.0687064 2279:0.0486969 2287:0.0789278 2302:0.48548 2321:0.0789278 2332:0.0584363 2368:0.0262472 2383:0.0521221 2395:0.0469099 2405:0.0614296 2442:0.0868702 2493:0.0578928 2593:0.0171258 2595:0.0882353 2626:0.0551005 2653:0.191363 2678:0.103251 2822:0.0806297 2927:0.0816083 2936:0.116113 2972:0.128071 2993:0.051936 3005:0.153884 3016:0.107036 3044:0.08414 3084:0.0220898 3125:0.128071 3156:0.0338794 3170:0.0429387 3212:0.051936 3234:0.0799206 3242:0.0752048 3285:0.288905 3289:0.0744602 3310:0.0577598 3369:0.159345 3386:0.175726 3432:0.224311 3451:0.0662695 3460:0.132911 3487:0.0727228 3546:0.151899 3564:0.226359 3611:0.131794 3629:0.0573343 3673:0.0361132 3719:0.145011 3755:0.0212373 3819:0.140283 3922:0.330603 4035:0.0134028 4048:0.0338794 4076:0.0416977 4087:0.0346772 4101:0.0229337 4112:0.112435 4127:0.173492 4315:0.186299 4355:0.0685034 4393:0.103996 4395:0.0845123 4487:0.0241709 4543:0.135517 4557:0.0268057 4671:0.107861 4681:0.170514 4723:0.0210207 4729:0.05448 4821:0.0463142 4885:0.0890764 4963:0.730454 5046:0.341772 5056:0.113179 5349:0.140357 5377:0.141474 5531:0.111884 5590:0.043373 5606:0.0324579 5616:0.0335071 5638:0.117647 5763:0.0373655 5804:0.0575205 5835:0.0666418 5891:0.0767573 5906:0.0230827 6038:0.124281 6048:0.00388848 6297:0.056962 6360:0.0403858 6369:0.0618019 6425:0.119881 6446:0.0480268 6485:0.460377 6516:0.0520601 6529:0.0703649 6657:0.206999 6665:0.139985 6690:0.0415488 6720:0.0331348 6805:0.0368046 6859:0.0586517 6886:0.0394639 6889:0.106478 6915:0.120625 6930:0.228593 6947:0.111194 7002:0.187143 7048:0.0165467 7099:0.105521 7159:0.0413254 7172:0.087863 7190:0.173492 7210:0.0191735 7214:0.0236145 7344:0.0469099 7349:0.0454207 7353:0.336932 7359:0.0646562 7386:0.0377265 7403:0.0353686 7412:0.0847492 7421:0.121122 7426:0.607781 7436:0.0833954 7507:0.033656 7518:0.0302805 7526:0.0908414 7535:0.0426905 7565:0.0466121 7797:0.0539836 7848:0.0243857 7896:0.138496 7979:0.0413999 8041:0.0285431 8044:0.142964 8046:0.1035 8064:0.0329327 8081:0.256888 8104:0.0557404 8135:0.140606 8200:0.364855 8233:0.080417 8238:0.32743 8287:0.0390916 8294:0.116902 8353:0.0667659 8357:0.0232141 8506:0.160238 8513:0.0280467 8520:0.022245 8553:0.367089 8579:0.0539092 8613:0.0518739 8637:0.130678 8650:0.0815339 8751:0.0165674 8854:0.0605255 8884:0.0580789 8892:0.225168 8909:0.0254518 8927:0.107223 8973:0.20551 9021:0.069248 9085:0.0768003 9111:0.163316 9112:0.0610573 9119:0.335071 9136:0.0338262 9197:0.0491437 9300:0.0662695 9420:0.0441176 9464:0.0696947 
168.4664006160918 175.6347225389036 136.7003826455561 159.5641048136577 165.8830314818887 201.401126861965 169.0136368885937 171.4351977377957 122.2063945273674 88:0.0838378 129:0.256659 153:0.0774818 185:0.397094 236:0.078777 310:0.102906 387:0.0762712 443:0.22276 558:0.162228 695:1 703:0.234867 704:0.147094 735:1 807:0.272397 1004:0.213559 1015:0.100484 1160:0.179177 1191:0.0535378 1199:0.255448 1205:0.127119 1243:0.250432 1423:0.258149 1436:0.336562 1503:0.131961 1534:0.130405 1584:0.343826 1642:0.909605 1728:0.597256 1813:0.108959 1899:0.188862 1993:0.184826 2293:0.428571 2328:0.198547 2332:0.0950121 2341:0.283293 2576:0.113801 2641:0.285022 2864:0.174334 2867:0.768362 3005:0.100081 3105:0.0924132 3242:0.489104 3285:0.447365 3327:0.48063 3453:0.397094 3637:0.0825446 3642:1 3673:0.117433 3724:0.184625 3755:0.03453 3935:0.244552 4068:0.497175 4076:0.135593 4103:0.0304681 4487:0.0785994 4591:0.100081 4671:0.175372 4812:0.438257 4880:0.109651 4919:0.143664 4985:0.479419 5007:0.215496 5021:0.153511 5046:0.264614 5056:0.245359 5167:1 5229:0.164952 5406:0.300242 5527:0.166667 5531:0.0808506 5685:0.11138 5702:0.276029 5734:0.243341 5788:0.224697 5831:0.111985 6042:0.341404 6072:0.115783 6087:0.105256 6288:0.159806 6326:0.255406 6393:0.48184 6529:0.0762712 6592:0.348668 6665:0.227603 6819:0.311138 6898:0.164649 7038:0.341404 7178:0.112764 7344:0.0508475 7349:0.1477 7386:0.12268 7518:0.0984665 7526:0.0984665 8041:0.0928168 8128:0.261501 8166:0.193705 8357:0.0754878 8520:0.0723366 8595:1 8613:0.168684 8854:0.196818 8861:0.235674 8892:0.213559 8943:0.140436 9136:0.109997 9198:0.457627 9199:0.191283 9209:0.447942 9281:0.217918 
117.342832722633 175.6347225389036 136.7003826455561 113.9305253672735 165.8830314818887 201.401126861965 169.0136368885937 171.4351977377957 122.2063945273674 7:0.0704047 88:0.116779 120:0.0607083 203:0.0607083 315:0.0668915 336:0.029511 443:0.0775717 667:0.11973 681:0.0547499 741:0.079258 791:0.0577572 804:0.0982293 828:0.0514334 855:0.140528 970:0.854975 1004:0.276223 1011:0.575604 1082:0.543002 1097:0.235245 1103:0.0388795 1191:0.316938 1193:0.20489 1209:0.0657673 1279:0.158094 1335:0.0300731 1337:0.0868465 1349:1 1450:0.0267405 1472:0.134064 1479:0.06914 1503:0.183811 1513:0.0272344 1534:0.0454107 1548:0.0804625 1551:0.1543 1584:0.598651 1661:0.06914 1685:0.0903397 1695:0.373806 1735:0.126686 1736:0.132097 1813:0.0379427 1934:0.399663 1977:0.11692 1993:0.064362 1997:0.187184 2021:0.10118 2044:0.0747611 2059:0.0564924 2170:0.0402242 2182:0.110034 2192:0.0729342 2216:0.0476613 2272:0.0288364 2279:0.0551433 2293:0.149241 2328:0.06914 2383:0.177066 2493:0.163891 2576:0.752951 2641:0.14888 2652:0.0614109 2667:0.0514334 2724:0.105565 2756:0.0879708 2813:1 2820:0.528668 2822:0.182607 2853:0.11973 2935:0.0349916 2954:0.150084 2983:0.0337268 3005:0.034851 3016:0.0606029 3017:0.059584 3091:0.0406757 3105:0.064362 3170:0.0486228 3212:0.0588111 3233:0.0699831 3242:0.0851602 3285:0.451779 3410:0.0819562 3432:0.304806 3451:0.0750422 3460:0.0501686 3474:0.0598651 3546:0.0860034 3554:0.363406 3564:0.128162 3611:0.049747 3627:0.897133 3637:0.114978 3650:0.0517806 3673:0.0817875 3717:0.0986987 3719:0.164207 3728:0.10645 3755:0.0841704 3767:0.0632378 3861:0.645025 3894:0.0410343 4048:0.0383642 4062:0.152192 4087:0.0392676 4101:0.0259696 4103:0.0106099 4199:0.0571248 4235:0.140809 4286:0.111298 4351:0.160202 4395:0.0637999 4446:0.0531197 4481:0.0860034 4538:0.149522 4540:0.0290261 4629:0.265237 4644:0.391653 4649:0.307757 4801:0.0491849 4831:0.0514334 4857:0.0923272 5007:0.0750422 5046:0.147434 5056:0.213603 5087:0.157251 5118:0.225356 5267:0.145447 5290:0.201518 5359:0.0876897 5531:0.077425 5575:0.0958052 5624:0.0430017 5647:0.141231 5685:0.0387858 5695:0.0567032 5708:0.0594435 5736:0.113547 5798:0.0462338 5835:0.0754637 5852:0.0517707 5950:0.148398 6031:0.0569983 6072:0.0403189 6148:0.0910624 6173:0.0383642 6227:0.0498407 6259:0.123103 6282:0.124789 6297:0.0645025 6433:0.179595 6446:0.217538 6475:0.0649241 6529:0.132799 6592:0.0607083 6687:0.186762 6690:0.0470489 6696:0.0961214 6702:0.202361 6732:0.109401 6859:0.132832 6886:0.134064 6907:0.0893761 7024:0.169477 7048:0.0562114 7109:0.049747 7127:0.478921 7159:0.0935919 7192:0.0290207 7214:0.0534811 7316:0.530265 7344:0.0531197 7421:0.0685779 7526:0.137156 7579:0.0897133 7624:0.0295953 7691:0.0486228 7732:0.0558901 7797:0.0611298 7854:0.0556492 7867:0.0257167 7901:0.0319041 7999:0.0961214 8015:0.133221 8041:0.0969646 8128:0.0607083 8238:0.0570423 8294:0.330944 8353:0.0756043 8355:0.0392074 8357:0.0131435 8380:0.0675942 8506:0.18145 8513:0.0317594 8530:0.0370995 8578:0.0241709 8598:0.0282462 8624:0.0531197 8650:0.153879 8800:0.10118 8823:0.0667791 8871:0.140809 8892:0.276223 8965:0.0303541 8994:0.178331 9008:0.169477 9021:0.15683 9059:0.23946 9085:0.173934 9136:0.038304 9196:0.212479 9197:0.111298 9200:0.344576 9237:0.0486444 9266:0.235245 9432:0.0559865 9442:0.783305 9464:0.0789207 9487:0.160202 
97.17103319806363 98.84219994619325 136.7003826455561 159.5641048136577 109.8608189651487 112.7320361853329 45.57054912421923 109.9106982538762 71.14672746611149 336:0.129151 425:0.137761 514:0.557196 546:0.229889 679:0.476015 855:0.153752 1004:0.371956 1191:0.0815908 1243:0.381655 1279:0.138376 1450:0.0585134 1504:0.164207 1590:0.168512 1713:0.130996 1899:0.287823 1946:0.95572 2185:0.867159 2217:0.130586 2230:0.273063 2575:0.098401 2744:1 2756:0.192497 3133:0.126076 3245:0.232472 3285:0.3068 3336:0.804428 3719:0.359317 3755:0.263116 3785:0.189422 4035:0.0664207 4076:0.206642 4103:0.0928659 4247:0.191882 4255:0.782288 4395:0.139606 4961:0.153137 4967:0.645756 5046:0.322615 5326:0.339483 5505:0.164207 5531:0.102679 5575:0.13976 5763:0.0925864 5835:0.330258 6073:0.153137 6079:1 6173:0.111931 6253:0.212177 6359:1 6592:0.265683 6925:0.285978 7018:0.637849 7040:0.136196 7048:0.328003 7216:1 7228:0.219557 7316:0.110507 7344:0.0774908 7526:0.0750308 7578:0.557196 7867:0.225092 7953:0.232472 8041:0.141451 8204:0.10051 8208:1 8254:0.215498 8357:0.0575212 8396:0.0626153 8653:0.165129 8892:0.371956 
26.67842313162502 0 0 0 0 60.13212920898953 9.9788314487152 0 0 120:0.286853 247:0.394422 276:0.189641 310:0.169323 503:0.379283 933:0.446215 1225:0.204515 1279:0.298805 1503:0.217131 1590:0.363878 1695:0.126162 1736:0.156042 1813:0.358566 1956:0.569721 2041:0.132394 2641:0.234491 2677:0.0956175 2724:0.249402 2869:1 3175:0.948207 3285:0.441662 3373:0.590969 3404:1 3673:0.193227 3719:0.387948 3755:0.0568162 3785:0.204515 3814:0.143711 4017:0.541833 4035:0.143426 4103:0.0501328 4454:1 4487:0.129329 4544:0.176218 4740:0.370518 4961:0.165339 5007:0.709163 5046:0.348321 5477:0.110226 5527:0.548473 5531:0.155205 5667:0.513944 5835:0.356574 5936:0.513944 6048:0.0208057 6173:0.060425 6333:0.409031 6529:0.376494 6584:0.177955 6592:0.286853 6602:0.231076 6641:0.623506 7048:0.0885347 7069:0.287849 7159:0.221116 7215:0.15075 7260:1 7565:0.249402 7624:0.279681 7640:0.294821 7713:0.324115 7738:0.494024 7815:0.688247 7867:0.121514 8125:1 8409:0.814741 9136:0.18099 9197:0.525896 9237:0.114925 9443:0.280876 9453:0.459163 
85.91480792178321 66.80277113140663 20.86062750224328 4.931495220767727 165.8830314818887 130.4835950226445 169.0136368885937 60.35481060903353 54.6032528246492 7:0.0858171 25:0.760534 134:0.0488523 153:0.032888 203:0.0739979 275:0.528263 276:0.489209 315:0.0815348 331:0.0637205 387:0.0647482 443:0.0945529 503:0.146763 584:0.0935252 774:0.0386076 823:0.354573 855:0.171292 933:0.115108 1004:0.0258993 1182:0.213772 1191:0.227247 1243:0.159448 1279:0.115622 1328:0.381638 1481:0.334753 1503:0.168037 1504:0.0228674 1534:0.0553516 1590:0.0469339 1661:0.126413 1672:0.170606 1695:0.0325454 1734:1 1754:0.0520726 1806:0.119733 1813:0.0924974 1953:0.111682 1993:0.156903 2041:0.136612 2059:0.137718 2145:0.165468 2182:0.134121 2192:0.177801 2216:0.0290474 2217:0.109113 2218:0.0318602 2230:0.304214 2272:0.035149 2275:0.0900993 2332:0.0806578 2370:1 2383:0.0719424 2395:0.258993 2431:0.295992 2493:0.159815 2532:0.0303186 2567:0.152107 2595:0.0405961 2626:0.0760534 2641:0.120981 2652:0.0748544 2677:0.172662 2724:0.128674 2789:0.329908 2799:0.178828 2822:0.0556453 2935:0.0426516 3005:0.0424803 3017:0.0726276 3105:0.117677 3183:0.199383 3212:0.286742 3285:0.607644 3304:0.182939 3373:0.304899 3432:0.0619219 3474:0.0729702 3564:0.0781089 3584:0.0945529 3635:0.203494 3637:0.0350369 3673:0.0498458 3755:0.0293132 3785:0.0527578 3814:0.0370724 3966:0.0945529 4035:0.036999 4076:0.057554 4103:0.025865 4395:0.233299 4451:1 4454:0.257965 4481:0.10483 4504:0.193217 4544:0.0909163 4619:0.759507 4660:0.0472765 4671:0.0744384 4723:0.0290142 4740:0.0955807 4778:0.183967 4919:0.12196 4953:0.146234 5007:0.0914697 5040:0.274409 5046:0.134782 5056:0.104145 5112:0.18705 5115:0.167376 5118:0.0457816 5278:0.120247 5359:0.213772 5464:0.254882 5477:0.199041 5531:0.0686358 5575:0.077852 5590:0.119733 5646:0.149024 5667:0.13258 5798:0.0563549 5804:0.0793936 5835:0.275951 5936:0.13258 6032:0.124872 6072:0.0491451 6073:0.0853032 6098:0.0750257 6148:0.110997 6173:0.0155875 6259:0.0500171 6324:0.0948099 6333:0.105516 6433:0.14594 6446:0.0662898 6465:0.0800022 6529:0.0647482 6592:0.0739979 6646:0.0768756 6686:0.0930113 6690:0.0573484 6845:0.0647482 6869:0.223535 6886:0.217883 7040:0.0189666 7048:0.0228389 7094:0.0914697 7155:0.241007 7159:0.11408 7192:0.0176868 7199:0.316033 7228:0.183453 7296:0.0945529 7344:0.0647482 7416:0.27807 7431:1 7457:0.0832477 7489:0.0359712 7526:0.271668 7579:0.109353 7647:0.0578109 7691:0.0592669 7713:0.0557403 7797:0.149024 7800:0.330935 7809:0.147482 7859:0.145466 7867:0.0313464 7999:0.0390545 8015:0.162384 8041:0.275779 8178:0.169579 8204:0.0279939 8278:0.251799 8294:0.242035 8355:0.0955807 8357:0.0160208 8506:0.0552929 8520:0.122816 8578:0.0589243 8623:0.929085 8624:0.129496 8650:0.0375128 8892:0.0258993 8926:0.166495 8942:0.0709147 8965:0.110997 8980:0.12333 8994:0.0724563 9008:0.0688592 9021:0.191161 9085:0.0530025 9094:0.0570401 9180:0.0900993 9197:0.47482 9210:0.0698869 9237:0.118586 9266:0.0955807 9300:0.0914697 9329:0.138232 9333:0.353546 9392:0.0621788 9420:0.0608941 9443:0.0724563 9464:0.0480987 9484:0.148681 9508:0.0914697 
168.4664006160918 175.6347225389036 136.7003826455561 159.5641048136577 165.8830314818887 201.401126861965 169.0136368885937 171.4351977377957 122.2063945273674 40:0.121352 56:0.586656 387:0.290323 420:0.395392 443:0.211982 681:0.074808 855:0.0960061 908:0.131336 1004:0.232258 1243:0.119157 1293:0.222874 1369:0.109677 1479:0.18894 1503:0.125576 1504:0.0512673 1590:0.105223 1620:0.447005 1661:0.09447 1695:0.0729647 1813:0.103687 1838:0.170507 1852:0.665899 2027:0.357143 2091:0.170507 2217:0.163082 2225:0.298387 2287:0.976959 2352:0.311521 2549:1 2595:0.0910138 2864:0.165899 2936:0.0898268 3005:0.285714 3117:0.101959 3133:0.078725 3285:0.361861 3310:0.044684 3416:0.303489 3460:0.685484 3523:0.179147 3673:0.111751 3755:0.0328591 3819:0.0723502 3969:0.0789993 4031:0.190092 4060:0.230159 4293:1 4355:0.105991 4537:0.249424 4793:0.608295 4808:0.343318 4813:0.0889401 5007:0.205069 5046:0.151086 5080:0.276498 5118:0.102639 5359:0.239631 5505:0.102535 5531:0.0769385 5583:0.37788 5616:0.103687 5685:0.211982 5736:0.155146 5798:0.126344 5802:0.483871 5835:0.0687404 5891:0.0791744 5897:0.131336 6197:0.177035 6246:0.488479 6269:0.077445 6297:0.352535 6321:0.138249 6425:0.0529954 6510:0.225806 6635:0.278802 6662:0.49424 6702:0.184332 6781:0.0616359 7032:0.304147 7040:0.042522 7048:0.0512033 7078:0.246544 7108:0.331797 7172:0.0679724 7316:0.138006 7342:0.0697005 7344:0.0483871 7526:0.046851 8078:0.216014 8175:0.0812133 8571:0.414747 8579:0.16682 8638:1 8680:0.717742 8737:0.0829493 8766:0.184908 8853:0.233871 8892:0.232258 8942:0.317972 8965:0.0829493 9197:0.304147 9237:0.0664658 9254:0.603687 9416:0.126728 9433:0.278802 
168.4664006160918 175.6347225389036 136.7003826455561 159.5641048136577 165.8830314818887 201.401126861965 169.0136368885937 171.4351977377957 122.2063945273674 68:0.361303 681:0.37318 1056:1 1191:0.127075 1713:0.204023 1902:1 1960:0.522989 2107:0.189454 2272:0.196552 2383:0.201149 2449:0.555556 2936:0.224051 3084:0.170498 3133:0.19636 3165:1 3285:0.371648 3441:0.405492 3755:0.081959 3767:0.431034 4087:0.535304 4104:0.522989 4446:0.362069 5046:0.502463 5531:0.095952 5939:0.275862 6173:0.261494 6405:0.385057 6529:0.181034 6592:0.413793 6818:0.505747 6926:1 7048:0.255428 7099:0.81445 7159:0.318966 7210:0.887931 7665:0.307061 7732:0.380952 8128:0.206897 8175:0.405133 8186:0.630268 8613:0.400383 8943:0.333333 
